{"learner":{"attributes":{"scikit_learn":"{\"_estimator_type\": \"regressor\"}"},"feature_names":["temperature_2m_mean","precipitation_sum","wind_speed_10m_max","wind_direction_10m_dominant"],"feature_types":["float","float","float","float"],"gradient_booster":{"model":{"gbtree_model_param":{"num_parallel_tree":"1","num_trees":"100"},"iteration_indptr":[0,1,2,3,4,5,6,7,8,9,10,11,12,13,14,15,16,17,18,19,20,21,22,23,24,25,26,27,28,29,30,31,32,33,34,35,36,37,38,39,40,41,42,43,44,45,46,47,48,49,50,51,52,53,54,55,56,57,58,59,60,61,62,63,64,65,66,67,68,69,70,71,72,73,74,75,76,77,78,79,80,81,82,83,84,85,86,87,88,89,90,91,92,93,94,95,96,97,98,99,100],"tree_info":[0,0,0,0,0,0,0,0,0,0,0,0,0,0,0,0,0,0,0,0,0,0,0,0,0,0,0,0,0,0,0,0,0,0,0,0,0,0,0,0,0,0,0,0,0,0,0,0,0,0,0,0,0,0,0,0,0,0,0,0,0,0,0,0,0,0,0,0,0,0,0,0,0,0,0,0,0,0,0,0,0,0,0,0,0,0,0,0,0,0,0,0,0,0,0,0,0,0,0,0],"trees":[{"base_weights":[-7.5217014E-7,5.0279403E0,-4.5066504E0,-1.0604769E0,6.6923065E0,1.3738767E0,-6.601729E0,1.5118573E0,-6.9984436E0,8.62079E0,2.5069196E0,1.1711675E1,2.0421682E-1,-4.469934E0,-9.954651E0,4.0576425E0,-1.8082004E0,-3.6466515E0,-9.146147E0,9.763954E0,4.9909053E0,5.7743587E0,6.686577E-1,1.5208472E1,-6.7977786E-1,6.3904834E0,-1.2759956E0,-2.0176764E0,-5.7702365E0,-8.540745E0,-1.2166815E1,1.0576606E1,1.980532E0,-4.940119E0,1.9479519E0,-5.5540423E0,4.5906878E0,-1.0477141E1,-2.1797779E0,1.2134387E1,7.597532E0,1.3710163E0,8.390647E0,8.9310875E0,9.316759E-1,5.772469E0,-6.773705E-1,1.7060993E1,8.007565E0,-2.8855145E0,6.6070604E0,1.0180935E1,2.0825727E0,-1.7740201E0,9.857943E0,1.1352959E0,-4.2435064E0,-3.8990388E0,-6.9818263E0,-9.136628E0,-1.1681643E0,-1.2825995E1,-5.741805E0,3.5168073E0,-2.0236764E0,2.6510867E-1,6.039486E0,-1.7461064E0,4.276324E0,-1.4375288E0,2.1498768E0,-2.0501235E0,-1.7279369E-1,-2.3788194E-1,4.726324E0,-2.1426172E0,-3.4070697E0,-1.4227937E0,1.1017652E0,3.3508484E0,8.064928E0,1.6953589E0,3.6832054E0,4.539486E0,1.5488021E-1,4.722471E0,1.9034641E0,1.6967134E0,8.608567E0,-1.959597E-1,2.9272065E0,7.3080085E-2,3.0550153E0,-1.5287127E0,7.762438E-2,3.6569526E0,6.335687E0,-7.9823494E-1,3.8421183E0,3.9763238E0,4.894857E-1,6.2552094E-1,4.731904E0,2.6216117E-1,5.0263243E0,2.6043254E-1,-1.1318972E0,1.0272063E0,4.6821184E0,1.7862858E0,-1.6253716E0,-1.5202348E0,2.6165552E0,-1.2419369E0,1.6144857E0,-2.2450583E0,-4.39597E-1,-1.5651797E0,-2.944055E0,2.1690202E0,-2.83098E0,-3.8717341E0,-5.236762E-1,1.4263239E0,-2.074479E0],"categories":[],"categories_nodes":[],"categories_segments":[],"categories_sizes":[],"default_left":[0,0,0,0,0,0,0,0,0,0,0,0,0,0,0,0,0,0,0,0,0,0,0,0,0,0,0,0,0,0,0,0,0,0,0,0,0,0,0,0,0,0,0,0,0,0,0,0,0,0,0,0,0,0,0,0,0,0,0,0,0,0,0,0,0,0,0,0,0,0,0,0,0,0,0,0,0,0,0,0,0,0,0,0,0,0,0,0,0,0,0,0,0,0,0,0,0,0,0,0,0,0,0,0,0,0,0,0,0,0,0,0,0,0,0,0,0,0,0,0,0,0,0,0,0],"id":0,"left_children":[1,3,5,7,9,11,13,15,17,19,21,23,25,27,29,31,33,35,37,39,41,43,45,47,49,51,53,55,57,59,61,63,65,67,69,71,73,75,77,79,81,83,85,87,89,91,93,95,97,-1,99,101,103,105,107,109,111,113,115,117,119,121,123,-1,-1,-1,-1,-1,-1,-1,-1,-1,-1,-1,-1,-1,-1,-1,-1,-1,-1,-1,-1,-1,-1,-1,-1,-1,-1,-1,-1,-1,-1,-1,-1,-1,-1,-1,-1,-1,-1,-1,-1,-1,-1,-1,-1,-1,-1,-1,-1,-1,-1,-1,-1,-1,-1,-1,-1,-1,-1,-1,-1,-1,-1],"loss_changes":[5.1390992E4,1.0870059E4,1.4743988E4,3.5389753E3,6.774543E3,3.8064966E3,6.2598125E3,1.3765859E3,4.7055273E2,2.341414E3,1.5998502E3,1.3969106E3,2.6087393E3,1.7134316E3,9.6578906E2,1.2247887E3,8.4486444E2,4.811399E2,3.6659448E2,2.151957E3,1.7114331E3,1.4592336E3,1.1855286E3,1.968794E2,5.8462244E2,8.768884E2,1.2928319E3,1.3312158E3,7.7307227E2,9.2068555E2,4.8117188E2,5.158357E2,1.3957328E3,7.418982E2,1.1949451E3,1.489544E2,3.7310034E2,2.158081E1,1.3740756E2,2.6455273E3,2.0346807E3,8.037565E2,9.8287744E2,3.592337E3,5.518897E2,8.754645E2,5.679626E2,1.18135254E2,3.924957E2,0E0,1.437414E2,1.2800205E3,4.6417377E2,1.1704951E3,3.1645477E2,2.5270645E3,1.2299785E3,3.373186E2,5.78541E2,4.6878223E2,1.2487112E3,8.178906E1,2.0526373E2,0E0,0E0,0E0,0E0,0E0,0E0,0E0,0E0,0E0,0E0,0E0,0E0,0E0,0E0,0E0,0E0,0E0,0E0,0E0,0E0,0E0,0E0,0E0,0E0,0E0,0E0,0E0,0E0,0E0,0E0,0E0,0E0,0E0,0E0,0E0,0E0,0E0,0E0,0E0,0E0,0E0,0E0,0E0,0E0,0E0,0E0,0E0,0E0,0E0,0E0,0E0,0E0,0E0,0E0,0E0,0E0,0E0,0E0,0E0,0E0,0E0,0E0],"parents":[2147483647,0,0,1,1,2,2,3,3,4,4,5,5,6,6,7,7,8,8,9,9,10,10,11,11,12,12,13,13,14,14,15,15,16,16,17,17,18,18,19,19,20,20,21,21,22,22,23,23,24,24,25,25,26,26,27,27,28,28,29,29,30,30,31,31,32,32,33,33,34,34,35,35,36,36,37,37,38,38,39,39,40,40,41,41,42,42,43,43,44,44,45,45,46,46,47,47,48,48,50,50,51,51,52,52,53,53,54,54,55,55,56,56,57,57,58,58,59,59,60,60,61,61,62,62],"right_children":[2,4,6,8,10,12,14,16,18,20,22,24,26,28,30,32,34,36,38,40,42,44,46,48,50,52,54,56,58,60,62,64,66,68,70,72,74,76,78,80,82,84,86,88,90,92,94,96,98,-1,100,102,104,106,108,110,112,114,116,118,120,122,124,-1,-1,-1,-1,-1,-1,-1,-1,-1,-1,-1,-1,-1,-1,-1,-1,-1,-1,-1,-1,-1,-1,-1,-1,-1,-1,-1,-1,-1,-1,-1,-1,-1,-1,-1,-1,-1,-1,-1,-1,-1,-1,-1,-1,-1,-1,-1,-1,-1,-1,-1,-1,-1,-1,-1,-1,-1,-1,-1,-1,-1,-1],"split_conditions":[2.1430197E2,6.233937E1,1.3910169E1,1.7673029E1,1.8718047E2,9.957108E0,2.7735468E2,4.9505005E0,1.9959719E1,1.8331741E1,1E-1,8.210917E0,2.4145067E2,2.3726814E2,5.5629997E0,1.0239453E1,1.4963E1,1.9469976E1,1.4631748E1,8.448417E0,6.513E0,1.373175E1,1.3608762E1,3.2974036E2,1.0565083E1,1E-1,1.9390083E1,4E-1,1E-1,4.6005006E0,1.5983832E1,4.223417E0,3.9025834E0,1.764E1,1.3722565E1,5.0136417E1,5E-1,-2.2015834E0,2.8999999E0,7.829666E0,1.5281989E1,1E-1,1.075948E2,1.2696334E1,2.2173418E1,8.000001E-1,2.063E0,-2.53075E0,3.375418E2,-2.8855145E0,1.7362999E1,1.1681987E1,2.0698416E1,1.4838332E0,4E-1,1.180675E1,2.3608315E2,2.0958834E1,2.730379E2,-3.795333E0,1.6923828E1,2.0300001E1,1.6029665E1,3.5168073E0,-2.0236764E0,2.6510867E-1,6.039486E0,-1.7461064E0,4.276324E0,-1.4375288E0,2.1498768E0,-2.0501235E0,-1.7279369E-1,-2.3788194E-1,4.726324E0,-2.1426172E0,-3.4070697E0,-1.4227937E0,1.1017652E0,3.3508484E0,8.064928E0,1.6953589E0,3.6832054E0,4.539486E0,1.5488021E-1,4.722471E0,1.9034641E0,1.6967134E0,8.608567E0,-1.959597E-1,2.9272065E0,7.3080085E-2,3.0550153E0,-1.5287127E0,7.762438E-2,3.6569526E0,6.335687E0,-7.9823494E-1,3.8421183E0,3.9763238E0,4.894857E-1,6.2552094E-1,4.731904E0,2.6216117E-1,5.0263243E0,2.6043254E-1,-1.1318972E0,1.0272063E0,4.6821184E0,1.7862858E0,-1.6253716E0,-1.5202348E0,2.6165552E0,-1.2419369E0,1.6144857E0,-2.2450583E0,-4.39597E-1,-1.5651797E0,-2.944055E0,2.1690202E0,-2.83098E0,-3.8717341E0,-5.236762E-1,1.4263239E0,-2.074479E0],"split_indices":[3,3,2,2,3,2,3,0,2,2,1,0,3,3,0,2,0,2,0,0,0,0,2,3,0,1,0,1,1,0,0,0,0,2,2,3,1,0,1,0,2,1,3,0,0,1,0,0,3,0,0,2,0,0,1,0,3,0,3,0,2,1,0,0,0,0,0,0,0,0,0,0,0,0,0,0,0,0,0,0,0,0,0,0,0,0,0,0,0,0,0,0,0,0,0,0,0,0,0,0,0,0,0,0,0,0,0,0,0,0,0,0,0,0,0,0,0,0,0,0,0,0,0,0,0],"split_type":[0,0,0,0,0,0,0,0,0,0,0,0,0,0,0,0,0,0,0,0,0,0,0,0,0,0,0,0,0,0,0,0,0,0,0,0,0,0,0,0,0,0,0,0,0,0,0,0,0,0,0,0,0,0,0,0,0,0,0,0,0,0,0,0,0,0,0,0,0,0,0,0,0,0,0,0,0,0,0,0,0,0,0,0,0,0,0,0,0,0,0,0,0,0,0,0,0,0,0,0,0,0,0,0,0,0,0,0,0,0,0,0,0,0,0,0,0,0,0,0,0,0,0,0,0],"sum_hessian":[2.266E3,1.071E3,1.195E3,2.3E2,8.41E2,3.14E2,8.81E2,1.61E2,6.9E1,5.75E2,2.66E2,3.1E1,2.83E2,5.4E2,3.41E2,9.1E1,7E1,2.8E1,4.1E1,4.36E2,1.39E2,9.5E1,1.71E2,2.4E1,7E0,5.4E1,2.29E2,1.88E2,3.52E2,2.11E2,1.3E2,2.1E1,7E1,3.8E1,3.2E1,2.3E1,5E0,3.4E1,7E0,2.06E2,2.3E2,6.8E1,7.1E1,5.7E1,3.8E1,3.5E1,1.36E2,1.8E1,6E0,3E0,4E0,2.8E1,2.6E1,2.2E2,9E0,7.8E1,1.1E2,1.4E2,2.12E2,1.95E2,1.6E1,1.17E2,1.3E1,2E1,1E0,6.7E1,3E0,3.7E1,1E0,1.4E1,1.8E1,1.8E1,5E0,4E0,1E0,9E0,2.5E1,5E0,2E0,1.95E2,1.1E1,1.64E2,6.6E1,3E0,6.5E1,1.4E1,5.7E1,5E1,7E0,3.3E1,5E0,1.6E1,1.9E1,2.3E1,1.13E2,1E1,8E0,2E0,4E0,1E0,3E0,1.2E1,1.6E1,2.5E1,1E0,9.5E1,1.25E2,5E0,4E0,4.5E1,3.3E1,1.04E2,6E0,1.37E2,3E0,1.94E2,1.8E1,3E1,1.65E2,8E0,8E0,1.16E2,1E0,1E0,1.2E1],"tree_param":{"num_deleted":"0","num_feature":"4","num_nodes":"125","size_leaf_vector":"1"}},{"base_weights":[3.0477688E-2,3.3228393E0,-3.4225144E0,-1.6253905E0,4.214569E0,3.424869E0,-4.449979E0,1.4900757E-1,-6.299806E0,5.48195E0,6.2697005E-1,5.131871E0,-1.0302559E0,-3.1435578E0,-6.369624E0,2.473496E0,-3.1683E0,-3.4042091E0,-7.7317104E0,6.779306E0,3.1673017E0,2.450082E0,-3.690346E0,1.0371323E1,3.3649015E0,-5.615952E0,3.1853886E0,-1.1586598E0,-4.434975E0,-2.810392E0,-7.0881963E0,1.2324594E0,2.0097929E1,-9.5474625E-1,-4.660282E0,-5.179898E0,4.0173755E0,-8.551887E0,-4.6854963E0,7.8063855E0,4.101054E0,2.3380737E0,1.4324123E1,5.1008735E0,6.68647E-1,-4.2807136E0,4.0091195E0,1.1330401E1,-2.040849E0,2.2252474E0,1.2108255E1,-7.837718E0,5.2305417E0,-1.4683769E0,1.0070647E1,4.0907145E0,-2.1318142E0,-4.9628844E0,-6.7480683E-1,-3.365595E0,3.046743E0,-7.6949263E0,-4.942647E0,1.1516372E0,-3.0412003E-1,6.9765234E0,1.1204009E0,-8.116435E-1,2.41128E0,-1.6977474E-2,-1.716149E0,-2.882103E-1,-1.7035233E0,-1.9862214E0,-3.0696805E0,-2.1850111E0,8.814122E-1,1.221699E0,2.8990574E0,7.3003775E-1,3.4303062E0,3.0598404E0,4.7917345E-1,2.6610308E0,6.009866E0,1.2112801E0,4.364767E0,4.5970812E-2,2.8730693E0,5.2258027E-1,-1.4563861E0,1.8668596E0,-8.367424E-2,2.8684406E0,6.3346276E0,1.0819293E0,-1.7285699E0,6.852607E0,-2.1058376E0,-2.6040363E0,8.461084E-1,3.0281446E0,-1.4038917E0,-1.5670716E0,6.0028976E-1,3.7703898E0,2.660063E-1,-4.5540488E-1,2.59608E0,-7.6836E-1,8.33502E-1,-1.5311754E0,8.747723E-1,1.6361202E0,-7.9131687E-1,-2.2388077E0,-4.136477E-1,-1.8472096E0,-2.6036758E0,1.8777612E0,-1.7016511E0],"categories":[],"categories_nodes":[],"categories_segments":[],"categories_sizes":[],"default_left":[0,0,0,0,0,0,0,0,0,0,0,0,0,0,0,0,0,0,0,0,0,0,0,0,0,0,0,0,0,0,0,0,0,0,0,0,0,0,0,0,0,0,0,0,0,0,0,0,0,0,0,0,0,0,0,0,0,0,0,0,0,0,0,0,0,0,0,0,0,0,0,0,0,0,0,0,0,0,0,0,0,0,0,0,0,0,0,0,0,0,0,0,0,0,0,0,0,0,0,0,0,0,0,0,0,0,0,0,0,0,0,0,0,0,0,0,0,0,0,0,0],"id":1,"left_children":[1,3,5,7,9,11,13,15,17,19,21,23,25,27,29,31,33,35,37,39,41,43,45,47,49,51,53,55,57,59,61,63,65,67,69,71,-1,73,75,77,79,81,83,85,87,89,91,93,-1,95,97,99,101,103,105,107,109,111,113,115,-1,117,119,-1,-1,-1,-1,-1,-1,-1,-1,-1,-1,-1,-1,-1,-1,-1,-1,-1,-1,-1,-1,-1,-1,-1,-1,-1,-1,-1,-1,-1,-1,-1,-1,-1,-1,-1,-1,-1,-1,-1,-1,-1,-1,-1,-1,-1,-1,-1,-1,-1,-1,-1,-1,-1,-1,-1,-1,-1,-1],"loss_changes":[2.5783758E4,5.129745E3,7.8034746E3,1.4773197E3,4.470668E3,1.1079989E3,2.3950488E3,1.0102723E3,1.7684424E2,2.1616543E3,2.039747E3,9.371865E2,8.1048724E2,1.4687769E3,9.7497363E2,1.6594176E3,1.7389014E2,6.061885E2,3.9879883E1,1.2470957E3,2.3996665E3,8.560321E2,3.6716638E2,5.0533447E2,7.702082E2,5.229629E2,7.1971985E2,1.1734478E3,6.874414E2,5.165052E2,3.824375E2,4.3125705E2,1.7145605E2,3.8383884E2,1.5586493E2,3.0301239E1,0E0,1.0136353E1,1.9964368E2,2.2837559E3,1.5741707E3,1.4164001E3,3.827495E2,6.7462695E2,5.0358752E2,2.5731982E2,5.8691338E1,2.3083203E2,0E0,8.1506335E2,2.0081504E3,1.7711365E2,2.4001907E2,1.92845E2,1.9527362E2,9.34448E2,4.1402734E2,3.5378955E2,5.4369714E2,5.188094E2,0E0,3.2479688E2,6.4023206E2,0E0,0E0,0E0,0E0,0E0,0E0,0E0,0E0,0E0,0E0,0E0,0E0,0E0,0E0,0E0,0E0,0E0,0E0,0E0,0E0,0E0,0E0,0E0,0E0,0E0,0E0,0E0,0E0,0E0,0E0,0E0,0E0,0E0,0E0,0E0,0E0,0E0,0E0,0E0,0E0,0E0,0E0,0E0,0E0,0E0,0E0,0E0,0E0,0E0,0E0,0E0,0E0,0E0,0E0,0E0,0E0,0E0,0E0],"parents":[2147483647,0,0,1,1,2,2,3,3,4,4,5,5,6,6,7,7,8,8,9,9,10,10,11,11,12,12,13,13,14,14,15,15,16,16,17,17,18,18,19,19,20,20,21,21,22,22,23,23,24,24,25,25,26,26,27,27,28,28,29,29,30,30,31,31,32,32,33,33,34,34,35,35,37,37,38,38,39,39,40,40,41,41,42,42,43,43,44,44,45,45,46,46,47,47,49,49,50,50,51,51,52,52,53,53,54,54,55,55,56,56,57,57,58,58,59,59,61,61,62,62],"right_children":[2,4,6,8,10,12,14,16,18,20,22,24,26,28,30,32,34,36,38,40,42,44,46,48,50,52,54,56,58,60,62,64,66,68,70,72,-1,74,76,78,80,82,84,86,88,90,92,94,-1,96,98,100,102,104,106,108,110,112,114,116,-1,118,120,-1,-1,-1,-1,-1,-1,-1,-1,-1,-1,-1,-1,-1,-1,-1,-1,-1,-1,-1,-1,-1,-1,-1,-1,-1,-1,-1,-1,-1,-1,-1,-1,-1,-1,-1,-1,-1,-1,-1,-1,-1,-1,-1,-1,-1,-1,-1,-1,-1,-1,-1,-1,-1,-1,-1,-1,-1,-1],"split_conditions":[2.2311371E2,5.0136417E1,1.2144331E1,1.8089775E1,1.9935907E2,1.0477584E1,2.8400363E2,4.49425E0,2.6925E-1,1.6000001E0,1.9386591E1,1.000256E1,1.7110914E1,1E-1,1.3797913E1,3.7442503E0,1.6433495E1,7.341681E-2,1.4423417E1,1.5983832E1,1.9692167E1,6.052583E0,1.7273418E1,8.210917E0,8.448417E0,1.20694E1,4E-1,2.3675589E2,1.6627583E1,1.8542168E1,3.3895367E2,1.3608762E1,3.7921158E1,1.7477621E1,1.0239453E1,1.8391735E1,4.0173755E0,6.763E0,2.3532547E1,9.530722E1,2.2173418E1,1.0990322E1,3.4999998E0,1.764E1,2.2173418E1,2.0183987E2,2.0396334E1,6.619251E0,-2.040849E0,4.223417E0,2.939446E2,3.469729E2,1.180675E1,1.9390083E1,2.6255936E2,2.2868068E2,1.80755E1,2.799354E2,1.3797913E1,3.1489868E2,3.046743E0,3.0379657E2,-4.3536663E0,1.1516372E0,-3.0412003E-1,6.9765234E0,1.1204009E0,-8.116435E-1,2.41128E0,-1.6977474E-2,-1.716149E0,-2.882103E-1,-1.7035233E0,-1.9862214E0,-3.0696805E0,-2.1850111E0,8.814122E-1,1.221699E0,2.8990574E0,7.3003775E-1,3.4303062E0,3.0598404E0,4.7917345E-1,2.6610308E0,6.009866E0,1.2112801E0,4.364767E0,4.5970812E-2,2.8730693E0,5.2258027E-1,-1.4563861E0,1.8668596E0,-8.367424E-2,2.8684406E0,6.3346276E0,1.0819293E0,-1.7285699E0,6.852607E0,-2.1058376E0,-2.6040363E0,8.461084E-1,3.0281446E0,-1.4038917E0,-1.5670716E0,6.0028976E-1,3.7703898E0,2.660063E-1,-4.5540488E-1,2.59608E0,-7.6836E-1,8.33502E-1,-1.5311754E0,8.747723E-1,1.6361202E0,-7.9131687E-1,-2.2388077E0,-4.136477E-1,-1.8472096E0,-2.6036758E0,1.8777612E0,-1.7016511E0],"split_indices":[3,3,2,2,3,0,3,0,0,1,2,2,0,1,2,0,3,0,0,0,0,0,0,0,0,2,1,3,0,0,3,2,3,2,2,2,0,0,2,3,0,2,1,2,0,3,0,0,0,0,3,3,0,0,3,3,0,3,2,3,0,3,0,0,0,0,0,0,0,0,0,0,0,0,0,0,0,0,0,0,0,0,0,0,0,0,0,0,0,0,0,0,0,0,0,0,0,0,0,0,0,0,0,0,0,0,0,0,0,0,0,0,0,0,0,0,0,0,0,0,0],"split_type":[0,0,0,0,0,0,0,0,0,0,0,0,0,0,0,0,0,0,0,0,0,0,0,0,0,0,0,0,0,0,0,0,0,0,0,0,0,0,0,0,0,0,0,0,0,0,0,0,0,0,0,0,0,0,0,0,0,0,0,0,0,0,0,0,0,0,0,0,0,0,0,0,0,0,0,0,0,0,0,0,0,0,0,0,0,0,0,0,0,0,0,0,0,0,0,0,0,0,0,0,0,0,0,0,0,0,0,0,0,0,0,0,0,0,0,0,0,0,0,0,0],"sum_hessian":[2.266E3,1.16E3,1.106E3,1.77E2,9.83E2,1.44E2,9.62E2,1.29E2,4.8E1,7.26E2,2.57E2,1.04E2,4E1,5.74E2,3.88E2,7.6E1,5.3E1,1.7E1,3.1E1,4.64E2,2.62E2,1.81E2,7.6E1,2.5E1,7.9E1,1.9E1,2.1E1,2.27E2,3.47E2,6.6E1,3.22E2,7.2E1,4E0,2.2E1,3.1E1,1.6E1,1E0,2.3E1,8E0,3.34E2,1.3E2,2.45E2,1.7E1,7.2E1,1.09E2,7.1E1,5E0,2.4E1,1E0,7.1E1,8E0,1.6E1,3E0,1.3E1,8E0,3.5E1,1.92E2,3.04E2,4.3E1,6.4E1,2E0,2.49E2,7.3E1,3.3E1,3.9E1,3E0,1E0,1.9E1,3E0,6E0,2.5E1,2E0,1.4E1,1.3E1,1E1,6E0,2E0,1.12E2,2.22E2,1.07E2,2.3E1,2E1,2.25E2,1E1,7E0,6.6E1,6E0,1.04E2,5E0,6E0,6.5E1,3E0,2E0,2.2E1,2E0,6.1E1,1E1,5E0,3E0,1.5E1,1E0,2E0,1E0,6E0,7E0,6E0,2E0,1.6E1,1.9E1,1.77E2,1.5E1,2.99E2,5E0,1E1,3.3E1,2E1,4.4E1,1E2,1.49E2,4E0,6.9E1],"tree_param":{"num_deleted":"0","num_feature":"4","num_nodes":"121","size_leaf_vector":"1"}},{"base_weights":[4.2077452E-2,2.3555417E0,-2.3842766E0,-1.1126215E0,2.9805188E0,8.429978E-1,-3.5523722E0,3.048868E-1,-4.206209E0,4.7123413E0,1.2106494E0,5.4371676E0,-7.180918E-2,-2.5160308E0,-4.9722576E0,1.9060786E0,-2.5128696E0,-2.2989612E0,-5.2019315E0,1.2143455E1,4.276349E0,2.2039633E0,-1.3245958E0,4.8745546E0,4.6313972E0,5.347476E0,-9.0327245E-1,-2.0382104E0,-4.318751E0,-3.9921734E0,-6.520392E0,-9.062269E-1,4.813731E0,-3.0659173E0,3.273183E0,-3.5521655E0,3.414769E0,-1.5439427E0,-5.6109314E0,1.6227966E1,3.5769897E0,3.8115842E0,1.0329542E1,3.5773256E0,-1.0167071E-1,1.4011085E1,-1.7691745E0,-1.9893931E0,5.2793245E0,9.928157E0,-1.4000738E-1,-1.3895128E0,3.907047E0,-2.1459365E0,1.2035145E1,-4.8828597E0,3.7122188E0,-4.40449E0,9.964272E-1,-7.067869E0,-2.9211664E0,-5.3298813E-1,3.2133155E0,9.0352976E-1,3.786311E0,-1.7691331E0,-2.6371464E-1,-4.961335E-1,-1.4865144E0,-1.6449807E0,8.730094E-1,-1.859095E0,-1.0274076E0,1.7663336E0,5.9256163E0,-2.5816464E0,2.3094885E0,-2.5465546E0,1.2004886E0,1.3378125E0,3.806371E0,8.577978E-1,3.9598107E0,4.5297575E0,-1.3550332E-1,5.7363796E0,1.7801808E0,-6.3652664E-1,2.3466845E0,2.1353917E0,4.505709E-1,4.839373E0,5.7981354E-1,-5.390446E-1,3.706817E0,-1.1020682E-1,-1.5386025E0,5.9185363E-2,2.5257845E0,-3.5965192E-1,-1.0830799E0,5.292759E0,1.23056605E-1,-1.1026243E0,-1.9977041E0,1.6712648E0,-1.1159647E0,-1.6199771E0,-7.0859146E-1,-5.108954E-1,6.6280527E0,-2.165225E0,-3.5650265E-1,-1.6198328E0,3.4841782E-1],"categories":[],"categories_nodes":[],"categories_segments":[],"categories_sizes":[],"default_left":[0,0,0,0,0,0,0,0,0,0,0,0,0,0,0,0,0,0,0,0,0,0,0,0,0,0,0,0,0,0,0,0,0,0,0,0,0,0,0,0,0,0,0,0,0,0,0,0,0,0,0,0,0,0,0,0,0,0,0,0,0,0,0,0,0,0,0,0,0,0,0,0,0,0,0,0,0,0,0,0,0,0,0,0,0,0,0,0,0,0,0,0,0,0,0,0,0,0,0,0,0,0,0,0,0,0,0,0,0,0,0,0,0,0,0],"id":2,"left_children":[1,3,5,7,9,11,13,15,17,19,21,23,25,27,29,31,33,35,37,39,41,43,45,-1,47,49,51,53,55,57,59,61,63,65,-1,67,-1,69,71,73,75,77,79,81,83,85,87,-1,89,91,93,95,97,99,101,103,105,107,109,111,113,-1,-1,-1,-1,-1,-1,-1,-1,-1,-1,-1,-1,-1,-1,-1,-1,-1,-1,-1,-1,-1,-1,-1,-1,-1,-1,-1,-1,-1,-1,-1,-1,-1,-1,-1,-1,-1,-1,-1,-1,-1,-1,-1,-1,-1,-1,-1,-1,-1,-1,-1,-1,-1,-1],"loss_changes":[1.273093E4,2.51981E3,4.176125E3,7.818455E2,3.0103535E3,1.2402102E3,1.1838076E3,5.597373E2,9.438995E1,1.5583037E3,1.2318469E3,3.516084E2,1.1177965E3,3.977671E2,4.9288574E2,6.503617E2,3.67523E2,4.0049335E2,4.5197327E1,8.866782E2,1.2856982E3,1.1117952E3,9.6566064E2,0E0,3.779875E2,8.3089154E2,5.0830777E2,5.943522E2,4.620996E2,4.40448E2,2.3748828E2,4.336084E2,5.106596E2,2.6723978E2,0E0,4.5069748E1,0E0,1.0368475E2,1.977716E1,5.396196E2,5.6832465E2,1.0601572E3,4.00271E2,1.4821562E3,7.091138E2,5.1638428E1,4.731351E2,0E0,3.0184998E2,8.615587E2,3.534588E2,7.4722986E2,3.3312527E2,5.1297156E2,1.8831998E2,1.7282935E2,1.17419464E2,3.8575073E2,1.00576996E3,9.078076E1,1.9850728E2,0E0,0E0,0E0,0E0,0E0,0E0,0E0,0E0,0E0,0E0,0E0,0E0,0E0,0E0,0E0,0E0,0E0,0E0,0E0,0E0,0E0,0E0,0E0,0E0,0E0,0E0,0E0,0E0,0E0,0E0,0E0,0E0,0E0,0E0,0E0,0E0,0E0,0E0,0E0,0E0,0E0,0E0,0E0,0E0,0E0,0E0,0E0,0E0,0E0,0E0,0E0,0E0,0E0,0E0],"parents":[2147483647,0,0,1,1,2,2,3,3,4,4,5,5,6,6,7,7,8,8,9,9,10,10,11,11,12,12,13,13,14,14,15,15,16,16,17,17,18,18,19,19,20,20,21,21,22,22,24,24,25,25,26,26,27,27,28,28,29,29,30,30,31,31,32,32,33,33,35,35,37,37,38,38,39,39,40,40,41,41,42,42,43,43,44,44,45,45,46,46,48,48,49,49,50,50,51,51,52,52,53,53,54,54,55,55,56,56,57,57,58,58,59,59,60,60],"right_children":[2,4,6,8,10,12,14,16,18,20,22,24,26,28,30,32,34,36,38,40,42,44,46,-1,48,50,52,54,56,58,60,62,64,66,-1,68,-1,70,72,74,76,78,80,82,84,86,88,-1,90,92,94,96,98,100,102,104,106,108,110,112,114,-1,-1,-1,-1,-1,-1,-1,-1,-1,-1,-1,-1,-1,-1,-1,-1,-1,-1,-1,-1,-1,-1,-1,-1,-1,-1,-1,-1,-1,-1,-1,-1,-1,-1,-1,-1,-1,-1,-1,-1,-1,-1,-1,-1,-1,-1,-1,-1,-1,-1,-1,-1,-1,-1],"split_conditions":[2.2311371E2,5.0136417E1,1.3979872E1,1.7673029E1,1.6517596E2,1.0464797E1,2.7735468E2,6.885917E0,2.6925E-1,9.021574E0,2.8999999E0,2.301226E2,2.4145067E2,1.6000001E0,5.5629997E0,2.4224226E1,1.764E1,7.341681E-2,1.8089775E1,8.210917E0,2.0558832E1,1.373175E1,1.0163227E1,4.8745546E0,2.3759581E2,1.5146333E1,1.80755E1,1.6E0,1.1899999E1,4.6005006E0,1.5615083E1,5.052583E0,3.538E0,1.4140083E1,3.273183E0,1.8E0,3.414769E0,1.7873554E1,1.4423417E1,6.755001E-1,7.0980064E1,-4.6994996E0,1.3450708E1,1.2779668E1,1.675561E2,-5.9116673E-1,1.8888E1,-1.9893931E0,8.210917E0,1E-1,2.262967E1,1.0942168E1,7E-1,1.0477584E1,7.0942492E0,2.468986E2,1.39E1,3.2860056E2,3.4E0,3.5475226E2,3.3488123E2,-5.3298813E-1,3.2133155E0,9.0352976E-1,3.786311E0,-1.7691331E0,-2.6371464E-1,-4.961335E-1,-1.4865144E0,-1.6449807E0,8.730094E-1,-1.859095E0,-1.0274076E0,1.7663336E0,5.9256163E0,-2.5816464E0,2.3094885E0,-2.5465546E0,1.2004886E0,1.3378125E0,3.806371E0,8.577978E-1,3.9598107E0,4.5297575E0,-1.3550332E-1,5.7363796E0,1.7801808E0,-6.3652664E-1,2.3466845E0,2.1353917E0,4.505709E-1,4.839373E0,5.7981354E-1,-5.390446E-1,3.706817E0,-1.1020682E-1,-1.5386025E0,5.9185363E-2,2.5257845E0,-3.5965192E-1,-1.0830799E0,5.292759E0,1.23056605E-1,-1.1026243E0,-1.9977041E0,1.6712648E0,-1.1159647E0,-1.6199771E0,-7.0859146E-1,-5.108954E-1,6.6280527E0,-2.165225E0,-3.5650265E-1,-1.6198328E0,3.4841782E-1],"split_indices":[3,3,2,2,3,2,3,0,0,2,1,3,3,1,0,3,2,0,2,0,0,0,2,0,3,0,0,1,1,0,0,0,0,0,0,1,0,2,0,0,3,0,2,0,3,0,0,0,0,1,0,0,1,0,0,3,1,3,1,3,3,0,0,0,0,0,0,0,0,0,0,0,0,0,0,0,0,0,0,0,0,0,0,0,0,0,0,0,0,0,0,0,0,0,0,0,0,0,0,0,0,0,0,0,0,0,0,0,0,0,0,0,0,0,0],"split_type":[0,0,0,0,0,0,0,0,0,0,0,0,0,0,0,0,0,0,0,0,0,0,0,0,0,0,0,0,0,0,0,0,0,0,0,0,0,0,0,0,0,0,0,0,0,0,0,0,0,0,0,0,0,0,0,0,0,0,0,0,0,0,0,0,0,0,0,0,0,0,0,0,0,0,0,0,0,0,0,0,0,0,0,0,0,0,0,0,0,0,0,0,0,0,0,0,0,0,0,0,0,0,0,0,0,0,0,0,0,0,0,0,0,0,0],"sum_hessian":[2.266E3,1.16E3,1.106E3,1.77E2,9.83E2,2.94E2,8.12E2,1.22E2,5.5E1,4.96E2,4.87E2,4.8E1,2.46E2,4.71E2,3.41E2,7.8E1,4.4E1,2E1,3.5E1,2.6E1,4.7E2,3.5E2,1.37E2,2E0,4.6E1,3.2E1,2.14E2,3.74E2,9.7E1,2.11E2,1.3E2,4E1,3.8E1,4.3E1,1E0,1.9E1,1E0,4E0,3.1E1,1.7E1,9E0,4.38E2,3.2E1,2.19E2,1.31E2,3E0,1.34E2,2E0,4.4E1,1.7E1,1.5E1,1.95E2,1.9E1,3.72E2,2E0,9.1E1,6E0,1.95E2,1.6E1,1.12E2,1.8E1,3.8E1,2E0,3.2E1,6E0,1.8E1,2.5E1,9E0,1E1,2E0,2E0,2.3E1,8E0,5E0,1.2E1,2E0,7E0,6E0,4.32E2,1E1,2.2E1,2.05E2,1.4E1,2E0,1.29E2,1E0,2E0,1.3E2,4E0,2.9E1,1.5E1,9E0,8E0,1.4E1,1E0,1.54E2,4.1E1,1.1E1,8E0,2.27E2,1.45E2,1E0,1E0,5.6E1,3.5E1,5E0,1E0,1.3E2,6.5E1,1.5E1,1E0,1.09E2,3E0,1.1E1,7E0],"tree_param":{"num_deleted":"0","num_feature":"4","num_nodes":"115","size_leaf_vector":"1"}},{"base_weights":[5.2594103E-2,2.1008396E0,-1.3737104E0,-5.6770355E-1,2.9772058E0,7.6083773E-1,-2.1343465E0,5.660602E-1,-3.1834466E0,1.0173777E1,2.6738212E0,2.600467E-1,3.5196464E0,-5.5402696E-1,-2.8213358E0,3.2258313E0,-3.035081E-1,-2.4780328E0,-8.34065E0,3.8610053E0,1.6210762E1,-3.5120227E0,2.8781316E0,1.219055E0,-4.907808E0,1.9893566E0,7.7498064E0,1.9790801E0,-1.7016503E0,-2.9244037E0,2.3421712E0,1.6944119E0,4.0820656E0,-1.6258775E0,1.9453685E0,-2.7890303E0,9.41281E-1,-7.326671E-1,-2.650318E0,8.112643E0,-3.868559E0,2.446226E1,4.464657E0,4.8087645E0,-5.205854E0,3.1188982E0,-8.895885E-1,4.753453E0,4.315486E-1,-7.048171E0,-1.6659086E0,6.5509443E0,9.8409586E-2,9.09499E0,3.509478E0,-7.0046425E0,2.456186E0,-2.27173E0,2.5393984E0,-2.4246304E0,-3.980084E0,5.017209E0,-1.6799178E0,1.4691551E0,-3.3379936E-1,6.8111634E-1,-8.246825E-1,1.2960881E0,-1.1374872E0,-9.202438E-1,5.210694E-1,2.9025536E0,-8.221603E-1,1.3120204E0,4.6139226E0,-2.3134236E0,7.6342934E-1,-1.0896318E0,8.698384E0,2.1053321E0,-1.6281064E0,-1.4569783E-1,-1.8863759E0,6.23436E-1,1.2962807E0,-6.9347936E-1,2.858039E0,6.585416E-1,4.989316E0,6.3502765E-1,-3.9208058E-1,-2.5304155E0,1.0139375E0,2.5307742E-1,-1.9340767E0,-7.366691E-2,2.6531188E0,-1.1182648E0,5.746826E-1,3.747194E0,1.4248334E0,2.4732997E0,-7.185608E-1,-7.189007E-2,-2.590796E0,3.0005217E0,5.394449E-1,1.1421791E0,-7.2865295E-1,1.1567839E0,-1.6009394E0,-2.6710825E0,-6.782602E-1,-8.2245094E-1,-1.6818643E0,1.7320571E0,3.2275888E-1],"categories":[],"categories_nodes":[],"categories_segments":[],"categories_sizes":[],"default_left":[0,0,0,0,0,0,0,0,0,0,0,0,0,0,0,0,0,0,0,0,0,0,0,0,0,0,0,0,0,0,0,0,0,0,0,0,0,0,0,0,0,0,0,0,0,0,0,0,0,0,0,0,0,0,0,0,0,0,0,0,0,0,0,0,0,0,0,0,0,0,0,0,0,0,0,0,0,0,0,0,0,0,0,0,0,0,0,0,0,0,0,0,0,0,0,0,0,0,0,0,0,0,0,0,0,0,0,0,0,0,0,0,0,0,0,0,0],"id":3,"left_children":[1,3,5,7,9,11,13,15,17,19,21,23,25,27,29,31,33,35,37,39,41,43,45,47,49,51,53,55,57,59,61,63,-1,65,67,69,71,-1,-1,73,75,77,79,-1,81,83,85,87,89,91,93,95,97,99,101,103,105,107,109,111,113,115,-1,-1,-1,-1,-1,-1,-1,-1,-1,-1,-1,-1,-1,-1,-1,-1,-1,-1,-1,-1,-1,-1,-1,-1,-1,-1,-1,-1,-1,-1,-1,-1,-1,-1,-1,-1,-1,-1,-1,-1,-1,-1,-1,-1,-1,-1,-1,-1,-1,-1,-1,-1,-1,-1,-1],"loss_changes":[6.625749E3,2.1789458E3,2.1723965E3,6.8686365E2,1.5033105E3,4.854032E2,1.0689004E3,3.7566113E2,2.3398889E2,1.00449316E3,8.6193115E2,1.4878315E3,3.341449E2,8.754836E2,3.7246484E2,6.128542E2,3.6894595E2,6.961932E1,1.7229004E0,5.2433386E2,1.2477058E3,8.1163605E2,5.951377E2,7.0213904E2,3.1438403E2,3.5300983E2,4.793756E1,4.2010626E2,5.0624005E2,3.4595312E2,3.2552322E2,3.291042E2,0E0,3.4755005E2,6.4312756E2,7.842178E1,2.1945474E2,0E0,0E0,2.0447266E2,1.6749646E2,1.12398E3,2.1486784E2,0E0,1.0420502E2,7.5916846E2,6.1450995E2,1.3612775E3,6.121463E2,4.333556E2,2.4539761E2,1.8916663E2,2.157164E2,8.8236206E1,1.5953586E2,5.311081E1,4.2888776E2,1.8402869E2,2.7980087E2,4.67938E2,4.1766113E2,2.6578339E1,0E0,0E0,0E0,0E0,0E0,0E0,0E0,0E0,0E0,0E0,0E0,0E0,0E0,0E0,0E0,0E0,0E0,0E0,0E0,0E0,0E0,0E0,0E0,0E0,0E0,0E0,0E0,0E0,0E0,0E0,0E0,0E0,0E0,0E0,0E0,0E0,0E0,0E0,0E0,0E0,0E0,0E0,0E0,0E0,0E0,0E0,0E0,0E0,0E0,0E0,0E0,0E0,0E0,0E0,0E0],"parents":[2147483647,0,0,1,1,2,2,3,3,4,4,5,5,6,6,7,7,8,8,9,9,10,10,11,11,12,12,13,13,14,14,15,15,16,16,17,17,18,18,19,19,20,20,21,21,22,22,23,23,24,24,25,25,26,26,27,27,28,28,29,29,30,30,31,31,33,33,34,34,35,35,36,36,39,39,40,40,41,41,42,42,44,44,45,45,46,46,47,47,48,48,49,49,50,50,51,51,52,52,53,53,54,54,55,55,56,56,57,57,58,58,59,59,60,60,61,61],"right_children":[2,4,6,8,10,12,14,16,18,20,22,24,26,28,30,32,34,36,38,40,42,44,46,48,50,52,54,56,58,60,62,64,-1,66,68,70,72,-1,-1,74,76,78,80,-1,82,84,86,88,90,92,94,96,98,100,102,104,106,108,110,112,114,116,-1,-1,-1,-1,-1,-1,-1,-1,-1,-1,-1,-1,-1,-1,-1,-1,-1,-1,-1,-1,-1,-1,-1,-1,-1,-1,-1,-1,-1,-1,-1,-1,-1,-1,-1,-1,-1,-1,-1,-1,-1,-1,-1,-1,-1,-1,-1,-1,-1,-1,-1,-1,-1,-1,-1],"split_conditions":[2.0183987E2,6.233937E1,1.3910169E1,1.7673029E1,6.842657E1,1.7110914E1,2.3759581E2,-1.7265834E0,2.5282152E1,1E-1,-2.9536667E0,1.3312999E1,1.4000002E0,1.6595179E1,1.2400001E1,5.343622E1,1.5141414E1,1.39E1,7.341681E-2,9.792167E0,2.4999998E0,1.1681987E1,9.400002E0,2.3474988E2,1.5713E1,2.276117E2,1.31041975E1,1.405845E1,2.3541928E2,3.0379657E2,2.0991426E1,1.272283E1,4.0820656E0,9.779817E0,5.182114E1,2.3532547E1,2.6925E-1,-7.326671E-1,-2.650318E0,1.5188415E1,1.9498417E1,8.8175017E-1,1.6529667E1,4.8087645E0,7.670148E1,1.5546833E1,1.8542168E1,2.2621117E2,1.2144331E1,3.469729E2,2.610851E2,2.0430724E2,2.3726814E2,2.4218579E2,4E0,1.3860915E1,1.4332341E1,-2.9536667E0,2.3726814E2,-5.2224164E0,4E-1,1.5317165E1,-1.6799178E0,1.4691551E0,-3.3379936E-1,6.8111634E-1,-8.246825E-1,1.2960881E0,-1.1374872E0,-9.202438E-1,5.210694E-1,2.9025536E0,-8.221603E-1,1.3120204E0,4.6139226E0,-2.3134236E0,7.6342934E-1,-1.0896318E0,8.698384E0,2.1053321E0,-1.6281064E0,-1.4569783E-1,-1.8863759E0,6.23436E-1,1.2962807E0,-6.9347936E-1,2.858039E0,6.585416E-1,4.989316E0,6.3502765E-1,-3.9208058E-1,-2.5304155E0,1.0139375E0,2.5307742E-1,-1.9340767E0,-7.366691E-2,2.6531188E0,-1.1182648E0,5.746826E-1,3.747194E0,1.4248334E0,2.4732997E0,-7.185608E-1,-7.189007E-2,-2.590796E0,3.0005217E0,5.394449E-1,1.1421791E0,-7.2865295E-1,1.1567839E0,-1.6009394E0,-2.6710825E0,-6.782602E-1,-8.2245094E-1,-1.6818643E0,1.7320571E0,3.2275888E-1],"split_indices":[3,3,2,2,3,0,3,0,2,1,0,0,1,2,1,3,2,1,0,0,1,2,1,3,0,3,2,2,3,3,2,2,0,2,3,2,0,0,0,2,0,0,0,0,3,2,0,3,2,3,3,3,3,3,1,0,2,0,3,0,1,0,0,0,0,0,0,0,0,0,0,0,0,0,0,0,0,0,0,0,0,0,0,0,0,0,0,0,0,0,0,0,0,0,0,0,0,0,0,0,0,0,0,0,0,0,0,0,0,0,0,0,0,0,0,0,0],"split_type":[0,0,0,0,0,0,0,0,0,0,0,0,0,0,0,0,0,0,0,0,0,0,0,0,0,0,0,0,0,0,0,0,0,0,0,0,0,0,0,0,0,0,0,0,0,0,0,0,0,0,0,0,0,0,0,0,0,0,0,0,0,0,0,0,0,0,0,0,0,0,0,0,0,0,0,0,0,0,0,0,0,0,0,0,0,0,0,0,0,0,0,0,0,0,0,0,0,0,0,0,0,0,0,0,0,0,0,0,0,0,0,0,0,0,0,0,0],"sum_hessian":[2.266E3,9.3E2,1.336E3,2.3E2,7E2,3.51E2,9.85E2,1.61E2,6.9E1,2.7E1,6.73E2,2.98E2,5.3E1,2.99E2,6.86E2,3.9E1,1.22E2,6.2E1,7E0,1.4E1,1.3E1,2.1E1,6.52E2,2.52E2,4.6E1,4E1,1.3E1,9.3E1,2.06E2,6.73E2,1.3E1,3.5E1,4E0,7.7E1,4.5E1,5.7E1,5E0,1E0,6E0,9E0,5E0,7E0,6E0,1E0,2E1,6.13E2,3.9E1,4.5E1,2.07E2,2.7E1,1.9E1,1.1E1,2.9E1,9E0,4E0,4E0,8.9E1,1.82E2,2.4E1,4.59E2,2.14E2,1E1,3E0,1.6E1,1.9E1,1.7E1,6E1,3.2E1,1.3E1,5.4E1,3E0,1E0,4E0,7E0,2E0,3E0,2E0,1E0,6E0,5E0,1E0,4E0,1.6E1,3.3E2,2.83E2,3.5E1,4E0,3.8E1,7E0,1.05E2,1.02E2,2.4E1,3E0,1.3E1,6E0,3E0,8E0,9E0,2E1,4E0,5E0,2E0,2E0,1E0,3E0,6E0,8.3E1,4E0,1.78E2,2.1E1,3E0,1E1,4.49E2,1.23E2,9.1E1,8E0,2E0],"tree_param":{"num_deleted":"0","num_feature":"4","num_nodes":"117","size_leaf_vector":"1"}},{"base_weights":[4.999537E-2,1.4951353E0,-9.5634365E-1,-3.821079E-1,2.111609E0,-2.3805216E-1,-2.1698785E0,1.4522882E-1,-3.6660216E0,7.566712E0,1.8818545E0,3.7774274E-1,-1.5928323E0,-2.501798E0,1.3042437E0,2.69009E0,-3.7375626E-1,-2.8694837E0,-7.3934298E0,9.4490795E0,-2.981996E0,6.4883914E0,1.6571891E0,1.17414255E1,2.7827117E-1,8.7532973E-1,-3.1619496E0,-1.2670801E0,-3.0888875E0,6.312517E-1,6.427331E0,5.4408393E0,-1.6281836E0,-3.03754E0,3.3004963E-1,-4.778047E0,-1.7139513E0,-6.227669E-1,-2.4611528E0,4.216712E0,1.3552106E1,-2.1017418E0,2.0358124E0,-2.1900043E0,7.6910405E0,1.4682457E0,6.2766986E0,1.4426026E0,4.4281106E0,1.239004E0,-5.822473E-1,-1.6861165E0,2.9720426E0,-4.0536876E0,2.097292E0,-2.0805873E-1,-4.5560336E0,-4.948695E0,-2.5689032E0,-1.2684829E0,3.0236206E0,3.2759266E0,-2.0753606E-1,4.6830398E-1,2.1807756E0,1.5342811E0,-1.1795906E0,-4.0692422E-1,-1.6387026E0,4.102775E0,6.5698964E-3,-7.269296E-1,-1.6323462E0,-2.1531707E-1,-9.957716E-1,1.8814331E0,-1.2113893E0,5.825515E-1,5.0523005E0,-1.7617264E-1,1.0922883E0,1.643884E0,6.042768E0,-1.84562E-1,5.668076E-1,2.447041E0,6.0839355E-1,3.007373E-1,3.4676454E0,-3.2768977E-1,8.734494E-1,8.245595E-1,-1.0952313E0,2.624238E0,4.6713433E-1,-1.2909583E0,2.1101635E-4,2.2259479E0,-2.6729617E-2,2.5772574E0,-1.8293099E-1,-7.3889625E-1,-2.0251317E0,-1.6484869E0,2.5063288E0,6.459653E-2,-9.6179605E-1,-1.8111185E0,-7.540292E-2,2.202884E0,2.3924989E-1,-3.5723963E-1,2.6384842E-1],"categories":[],"categories_nodes":[],"categories_segments":[],"categories_sizes":[],"default_left":[0,0,0,0,0,0,0,0,0,0,0,0,0,0,0,0,0,0,0,0,0,0,0,0,0,0,0,0,0,0,0,0,0,0,0,0,0,0,0,0,0,0,0,0,0,0,0,0,0,0,0,0,0,0,0,0,0,0,0,0,0,0,0,0,0,0,0,0,0,0,0,0,0,0,0,0,0,0,0,0,0,0,0,0,0,0,0,0,0,0,0,0,0,0,0,0,0,0,0,0,0,0,0,0,0,0,0,0,0,0,0,0,0],"id":4,"left_children":[1,3,5,7,9,11,13,15,17,19,21,23,25,27,29,31,33,35,37,39,41,43,45,47,49,51,53,55,57,59,61,63,65,67,69,71,73,-1,-1,75,77,-1,79,-1,81,83,85,-1,-1,87,89,91,93,95,97,99,101,103,105,107,109,-1,111,-1,-1,-1,-1,-1,-1,-1,-1,-1,-1,-1,-1,-1,-1,-1,-1,-1,-1,-1,-1,-1,-1,-1,-1,-1,-1,-1,-1,-1,-1,-1,-1,-1,-1,-1,-1,-1,-1,-1,-1,-1,-1,-1,-1,-1,-1,-1,-1,-1,-1],"loss_changes":[3.2983293E3,1.0782263E3,1.1649084E3,4.0056165E2,8.6434766E2,7.0222E2,5.763679E2,2.6515442E2,7.3793396E1,5.841603E2,6.867898E2,6.512131E2,1.0213235E3,3.2518628E2,1.4764581E2,4.1272733E2,3.1409192E2,5.3562027E1,4.516693E0,4.5809985E2,1.15216034E2,5.702058E2,5.5288416E2,3.3670044E1,4.760902E2,5.581848E2,7.6356995E2,5.1454663E2,2.8417822E2,1.8563005E2,1.5129942E2,1.3762494E2,2.3757343E2,1.3526471E2,5.4666675E2,2.431366E0,2.8003109E1,0E0,0E0,2.2885759E2,4.6370215E2,0E0,1.47692995E1,0E0,6.881598E2,5.45131E2,1.8315918E2,0E0,0E0,6.52396E2,5.449056E2,4.195242E2,4.5217188E2,1.3960352E2,2.799524E2,4.046509E2,1.4872144E2,5.2552747E2,4.2994592E2,1.10039795E2,1.6722014E2,0E0,4.2538114E0,0E0,0E0,0E0,0E0,0E0,0E0,0E0,0E0,0E0,0E0,0E0,0E0,0E0,0E0,0E0,0E0,0E0,0E0,0E0,0E0,0E0,0E0,0E0,0E0,0E0,0E0,0E0,0E0,0E0,0E0,0E0,0E0,0E0,0E0,0E0,0E0,0E0,0E0,0E0,0E0,0E0,0E0,0E0,0E0,0E0,0E0,0E0,0E0,0E0,0E0],"parents":[2147483647,0,0,1,1,2,2,3,3,4,4,5,5,6,6,7,7,8,8,9,9,10,10,11,11,12,12,13,13,14,14,15,15,16,16,17,17,18,18,19,19,20,20,21,21,22,22,23,23,24,24,25,25,26,26,27,27,28,28,29,29,30,30,31,31,32,32,33,33,34,34,35,35,36,36,39,39,40,40,42,42,44,44,45,45,46,46,49,49,50,50,51,51,52,52,53,53,54,54,55,55,56,56,57,57,58,58,59,59,60,60,62,62],"right_children":[2,4,6,8,10,12,14,16,18,20,22,24,26,28,30,32,34,36,38,40,42,44,46,48,50,52,54,56,58,60,62,64,66,68,70,72,74,-1,-1,76,78,-1,80,-1,82,84,86,-1,-1,88,90,92,94,96,98,100,102,104,106,108,110,-1,112,-1,-1,-1,-1,-1,-1,-1,-1,-1,-1,-1,-1,-1,-1,-1,-1,-1,-1,-1,-1,-1,-1,-1,-1,-1,-1,-1,-1,-1,-1,-1,-1,-1,-1,-1,-1,-1,-1,-1,-1,-1,-1,-1,-1,-1,-1,-1,-1,-1,-1],"split_conditions":[2.0183987E2,6.233937E1,1.8668005E1,2.1129883E1,6.842657E1,2.939446E2,1.5944249E1,1.0308831E1,2.6400545E1,1.744425E1,9.021574E0,7.653705E0,-3.9741683E-1,1E-1,2.7369128E2,5E-1,1.2599998E1,2.1470076E1,7.341681E-2,1E-1,1.9692167E1,7.0980064E1,2.2173418E1,-8.934917E0,1E-1,3.1990564E2,2.4999998E0,9.871332E0,1.99954E1,1.80755E1,1.719425E1,8.473393E0,6.755001E-1,6.885917E0,1.2738099E1,1.0000001E0,4.7484066E1,-6.227669E-1,-2.4611528E0,9.792167E0,3.21925E0,-2.1017418E0,2.262967E1,-2.1900043E0,8.891344E0,9.195254E1,1.675561E2,1.4426026E0,4.4281106E0,1.8448023E1,1.80755E1,1.2261157E1,1.0805999E1,3.55981E2,4.9999995E0,-3.795333E0,2.6008237E2,1.2400001E1,2.124E1,2.1589095E2,1.8542168E1,3.2759266E0,1.744425E1,4.6830398E-1,2.1807756E0,1.5342811E0,-1.1795906E0,-4.0692422E-1,-1.6387026E0,4.102775E0,6.5698964E-3,-7.269296E-1,-1.6323462E0,-2.1531707E-1,-9.957716E-1,1.8814331E0,-1.2113893E0,5.825515E-1,5.0523005E0,-1.7617264E-1,1.0922883E0,1.643884E0,6.042768E0,-1.84562E-1,5.668076E-1,2.447041E0,6.0839355E-1,3.007373E-1,3.4676454E0,-3.2768977E-1,8.734494E-1,8.245595E-1,-1.0952313E0,2.624238E0,4.6713433E-1,-1.2909583E0,2.1101635E-4,2.2259479E0,-2.6729617E-2,2.5772574E0,-1.8293099E-1,-7.3889625E-1,-2.0251317E0,-1.6484869E0,2.5063288E0,6.459653E-2,-9.6179605E-1,-1.8111185E0,-7.540292E-2,2.202884E0,2.3924989E-1,-3.5723963E-1,2.6384842E-1],"split_indices":[3,3,2,2,3,3,0,2,2,0,2,2,0,1,3,1,2,3,0,1,0,3,0,0,1,3,1,0,2,0,0,2,0,0,2,1,3,0,0,0,0,0,0,0,2,3,3,0,0,2,0,2,2,3,1,0,3,1,2,3,0,0,0,0,0,0,0,0,0,0,0,0,0,0,0,0,0,0,0,0,0,0,0,0,0,0,0,0,0,0,0,0,0,0,0,0,0,0,0,0,0,0,0,0,0,0,0,0,0,0,0,0,0],"split_type":[0,0,0,0,0,0,0,0,0,0,0,0,0,0,0,0,0,0,0,0,0,0,0,0,0,0,0,0,0,0,0,0,0,0,0,0,0,0,0,0,0,0,0,0,0,0,0,0,0,0,0,0,0,0,0,0,0,0,0,0,0,0,0,0,0,0,0,0,0,0,0,0,0,0,0,0,0,0,0,0,0,0,0,0,0,0,0,0,0,0,0,0,0,0,0,0,0,0,0,0,0,0,0,0,0,0,0,0,0,0,0,0,0],"sum_hessian":[2.266E3,9.3E2,1.336E3,2.3E2,7E2,8.4E2,4.96E2,1.99E2,3.1E1,2.7E1,6.73E2,5.78E2,2.62E2,4.53E2,4.3E1,3.3E1,1.66E2,2.7E1,4E0,2.3E1,4E0,3E1,6.43E2,4E0,5.74E2,1.02E2,1.6E2,1.47E2,3.06E2,3.9E1,4E0,2E1,1.3E1,3.4E1,1.32E2,9E0,1.8E1,1E0,3E0,1.1E1,1.2E1,2E0,2E0,2E0,2.8E1,6.19E2,2.4E1,2E0,2E0,2.71E2,3.03E2,4.6E1,5.6E1,1.37E2,2.3E1,1.12E2,3.5E1,6.5E1,2.41E2,2.2E1,1.7E1,2E0,2E0,7E0,1.3E1,3E0,1E1,2.1E1,1.3E1,2E0,1.3E2,3E0,6E0,1.2E1,6E0,9E0,2E0,3E0,9E0,1E0,1E0,2.5E1,3E0,1.04E2,5.15E2,1.6E1,8E0,2.66E2,5E0,2.65E2,3.8E1,1.4E1,3.2E1,1E1,4.6E1,1.29E2,8E0,6E0,1.7E1,4E0,1.08E2,1.9E1,1.6E1,6.3E1,2E0,4.5E1,1.96E2,3E0,1.9E1,5E0,1.2E1,1E0,1E0],"tree_param":{"num_deleted":"0","num_feature":"4","num_nodes":"113","size_leaf_vector":"1"}},{"base_weights":[4.810241E-2,8.2844424E-1,-1.0190123E0,1.3292009E0,-4.3778932E-1,5.1119703E-1,-1.4866936E0,2.382622E0,1.9378084E-1,-3.1269011E0,3.0966222E-1,7.599543E0,1.8066622E-1,-1.5548536E0,2.1127574E0,4.721253E-1,3.551396E0,2.6973202E0,-8.0052793E-1,-1.5629381E0,-7.002854E0,2.3191984E1,-2.5147736E-1,-1.7462517E0,9.737456E0,-4.0777283E0,5.8838755E-1,5.0497067E-1,-1.6879007E0,1.4778935E0,-3.6180732E0,2.857411E0,9.525992E0,-2.8732445E0,3.9979563E0,-1.310071E0,5.946954E0,-2.0953572E0,4.60626E0,2.8893027E0,-8.196712E0,1.06553135E1,1.0906733E1,-7.3357177E0,1.954988E-1,6.3462663E0,4.321325E0,-5.6218705E0,1.370245E0,4.7011356E0,4.3228343E-1,-6.491068E-1,9.867412E0,-5.2488303E0,-1.6057817E0,2.799194E-1,2.4833176E0,-2.5492564E-1,-2.4315999E0,1.0715321E0,-1.5094905E0,3.9551775E0,7.906822E-1,-2.9527435E0,-3.2312465E-1,9.407234E-1,4.218092E0,-2.0934498E0,-3.338468E-1,3.034878E-1,2.7142217E0,-5.075513E-1,-1.7376554E0,2.0901165E0,2.1301347E-1,-2.8247643E0,7.989945E-1,3.6037328E0,7.840199E-1,-2.5981627E0,5.2009165E-1,1.3214271E0,-2.1342199E-1,5.068727E-1,3.5975988E0,-1.9058292E0,6.9159484E-1,1.7219836E0,-1.0368611E0,9.475928E-1,-9.135222E-2,-1.016268E0,8.100079E-1,-8.609774E-1,4.1307683E0,2.415948E-1,-1.7216376E0,-3.9491642E-1,-7.858625E-1],"categories":[],"categories_nodes":[],"categories_segments":[],"categories_sizes":[],"default_left":[0,0,0,0,0,0,0,0,0,0,0,0,0,0,0,0,0,0,0,0,0,0,0,0,0,0,0,0,0,0,0,0,0,0,0,0,0,0,0,0,0,0,0,0,0,0,0,0,0,0,0,0,0,0,0,0,0,0,0,0,0,0,0,0,0,0,0,0,0,0,0,0,0,0,0,0,0,0,0,0,0,0,0,0,0,0,0,0,0,0,0,0,0,0,0,0,0,0,0],"id":5,"left_children":[1,3,5,7,9,11,13,15,17,19,21,23,25,27,-1,29,31,33,35,37,39,41,43,-1,45,47,49,51,53,55,57,59,61,63,65,67,69,71,73,-1,75,77,-1,79,81,83,-1,85,87,-1,89,91,93,95,97,-1,-1,-1,-1,-1,-1,-1,-1,-1,-1,-1,-1,-1,-1,-1,-1,-1,-1,-1,-1,-1,-1,-1,-1,-1,-1,-1,-1,-1,-1,-1,-1,-1,-1,-1,-1,-1,-1,-1,-1,-1,-1,-1,-1],"loss_changes":[1.8886073E3,8.3122E2,6.8635297E2,1.122653E3,7.486811E2,5.257833E2,4.376621E2,1.0857644E3,1.1298081E3,4.8006464E2,3.7551643E3,3.435963E2,3.7742676E2,2.0063745E2,0E0,7.705123E2,1.2249565E3,9.46128E2,1.1251841E3,2.0344308E2,5.356874E2,7.6782837E2,9.070493E2,0E0,5.102466E1,1.6753983E2,4.5939175E2,4.9262924E2,1.9187915E2,5.479879E2,4.5273297E2,1.5508657E3,7.4659375E2,3.0234573E2,8.668773E2,3.309953E2,3.4278754E2,7.224637E1,4.1043915E1,0E0,3.1636194E2,2.317627E1,0E0,2.1927417E2,1.0338313E3,1.6377148E2,0E0,1.01553986E2,1.25289085E2,0E0,3.966868E2,3.8517563E2,2.880103E2,4.9115997E1,1.9340674E2,0E0,0E0,0E0,0E0,0E0,0E0,0E0,0E0,0E0,0E0,0E0,0E0,0E0,0E0,0E0,0E0,0E0,0E0,0E0,0E0,0E0,0E0,0E0,0E0,0E0,0E0,0E0,0E0,0E0,0E0,0E0,0E0,0E0,0E0,0E0,0E0,0E0,0E0,0E0,0E0,0E0,0E0,0E0,0E0],"parents":[2147483647,0,0,1,1,2,2,3,3,4,4,5,5,6,6,7,7,8,8,9,9,10,10,11,11,12,12,13,13,15,15,16,16,17,17,18,18,19,19,20,20,21,21,22,22,24,24,25,25,26,26,27,27,28,28,29,29,30,30,31,31,32,32,33,33,34,34,35,35,36,36,37,37,38,38,40,40,41,41,43,43,44,44,45,45,47,47,48,48,50,50,51,51,52,52,53,53,54,54],"right_children":[2,4,6,8,10,12,14,16,18,20,22,24,26,28,-1,30,32,34,36,38,40,42,44,-1,46,48,50,52,54,56,58,60,62,64,66,68,70,72,74,-1,76,78,-1,80,82,84,-1,86,88,-1,90,92,94,96,98,-1,-1,-1,-1,-1,-1,-1,-1,-1,-1,-1,-1,-1,-1,-1,-1,-1,-1,-1,-1,-1,-1,-1,-1,-1,-1,-1,-1,-1,-1,-1,-1,-1,-1,-1,-1,-1,-1,-1,-1,-1,-1,-1,-1],"split_conditions":[2.3726814E2,1.8532133E1,1.3358861E1,9.3005E0,8.875464E1,2.4145067E2,2.0958834E1,9.530722E1,1.075948E2,6.842657E1,1.075948E2,8.473393E0,2.5032002E2,-3.795333E0,2.1127574E0,4.842167E0,7.829666E0,1.1159999E1,2.2173418E1,6.1458973E1,1.9296133E1,2.0188908E1,1.2710632E2,-1.7462517E0,1.6829666E1,4.1000004E0,2.5090001E2,3.4320847E2,1.3570615E1,3.9025834E0,6.842657E1,7.0942492E0,2.0656497E2,1.3021333E1,1.02640015E2,9.871332E0,1E-1,2.6400545E1,6.404718E1,2.8893027E0,1.1248418E1,1.9498417E1,1.0906733E1,1.5756748E1,1.7274242E2,2.4000807E2,4.321325E0,1.3237039E1,1.899425E1,4.7011356E0,1.0464797E1,-4.6994996E0,-8.934917E0,2.4218579E2,2.291026E1,2.799194E-1,2.4833176E0,-2.5492564E-1,-2.4315999E0,1.0715321E0,-1.5094905E0,3.9551775E0,7.906822E-1,-2.9527435E0,-3.2312465E-1,9.407234E-1,4.218092E0,-2.0934498E0,-3.338468E-1,3.034878E-1,2.7142217E0,-5.075513E-1,-1.7376554E0,2.0901165E0,2.1301347E-1,-2.8247643E0,7.989945E-1,3.6037328E0,7.840199E-1,-2.5981627E0,5.2009165E-1,1.3214271E0,-2.1342199E-1,5.068727E-1,3.5975988E0,-1.9058292E0,6.9159484E-1,1.7219836E0,-1.0368611E0,9.475928E-1,-9.135222E-2,-1.016268E0,8.100079E-1,-8.609774E-1,4.1307683E0,2.415948E-1,-1.7216376E0,-3.9491642E-1,-7.858625E-1],"split_indices":[3,2,2,0,3,3,0,3,3,3,3,2,3,0,0,0,0,2,0,3,2,2,3,0,0,1,3,3,2,0,3,0,3,0,3,0,1,2,3,0,0,0,0,0,3,3,0,2,0,0,2,0,0,3,2,0,0,0,0,0,0,0,0,0,0,0,0,0,0,0,0,0,0,0,0,0,0,0,0,0,0,0,0,0,0,0,0,0,0,0,0,0,0,0,0,0,0,0,0],"split_type":[0,0,0,0,0,0,0,0,0,0,0,0,0,0,0,0,0,0,0,0,0,0,0,0,0,0,0,0,0,0,0,0,0,0,0,0,0,0,0,0,0,0,0,0,0,0,0,0,0,0,0,0,0,0,0,0,0,0,0,0,0,0,0,0,0,0,0,0,0,0,0,0,0,0,0,0,0,0,0,0,0,0,0,0,0,0,0,0,0,0,0,0,0,0,0,0,0,0,0],"sum_hessian":[2.266E3,1.309E3,9.57E2,9.38E2,3.71E2,2.24E2,7.33E2,4.86E2,4.52E2,8E1,2.91E2,9E0,2.15E2,7.28E2,5E0,1.85E2,3.01E2,1.28E2,3.24E2,5.8E1,2.2E1,6E0,2.85E2,1E0,8E0,1.8E1,1.97E2,4.4E1,6.84E2,1.49E2,3.6E1,2.71E2,3E1,2.4E1,1.04E2,3.02E2,2.2E1,5.4E1,4E0,1E0,2.1E1,4E0,2E0,1.6E1,2.69E2,6E0,2E0,1.4E1,4E0,1E0,1.96E2,4E1,4E0,1.4E1,6.7E2,1.39E2,1E1,2.3E1,1.3E1,2.49E2,2.2E1,1.9E1,1.1E1,4E0,2E1,9.7E1,7E0,9E0,2.93E2,9E0,1.3E1,5E1,4E0,2E0,2E0,1.9E1,2E0,3E0,1E0,1.4E1,2E0,4.7E1,2.22E2,4E0,2E0,1.3E1,1E0,2E0,2E0,4.1E1,1.55E2,2.2E1,1.8E1,1E0,3E0,1E0,1.3E1,5.23E2,1.47E2],"tree_param":{"num_deleted":"0","num_feature":"4","num_nodes":"99","size_leaf_vector":"1"}},{"base_weights":[4.9696118E-2,1.0909272E0,-3.9060467E-1,5.1738185E-1,3.8454182E0,-9.744519E0,-3.3727816E-1,7.843882E-1,-4.574218E0,1.00923605E1,-8.738736E-1,-1.0514156E1,-5.3811383E-1,7.1955967E0,-3.848314E-1,1.3860536E0,-1.4588314E0,-1.3743103E0,-1.1176876E1,1.3639911E1,-4.1894913E-3,-2.7150722E0,5.1646385E0,-3.5383599E0,-4.448684E0,1.8055166E1,-3.0533106E0,5.2149713E-1,-6.7800087E-1,-7.9265356E-2,2.4126909E0,-2.7360594E0,2.710712E0,2.9991674E0,-2.498982E0,-4.6279163E0,-2.0083919E0,7.0891404E0,1.0943981E1,-3.272008E0,5.447481E0,-2.5966763E-1,-6.3273516E0,-2.6263313E0,7.1645803E0,-4.1996786E-1,-1.58194E0,6.0905347E0,1.360306E0,-4.740115E0,8.071066E-1,1.8236467E-1,4.027152E0,-7.401671E-1,4.2493186E0,1.0452136E0,-1.4618787E-1,5.546685E-1,3.4991407E0,3.5909584E-1,-1.3296187E0,7.037549E0,3.0314112E-1,-1.4454038E0,6.4943606E-1,7.192927E-2,-8.5130966E-1,9.8328984E-1,4.4989777E0,2.306841E0,-7.0409435E-1,-6.880517E-1,2.6807647E0,2.2057252E0,-2.2136884E0,6.6623783E-1,-1.4946911E0,4.43924E0,1.3294677E0,-5.6055605E-1,-1.8095015E0,1.4627943E-3,1.5676787E0,1.6865212E0,-3.080663E-1,3.5451746E-1,-2.5879586E-1,-2.1808076E0,1.9741813E0],"categories":[],"categories_nodes":[],"categories_segments":[],"categories_sizes":[],"default_left":[0,0,0,0,0,0,0,0,0,0,0,0,0,0,0,0,0,0,0,0,0,0,0,0,0,0,0,0,0,0,0,0,0,0,0,0,0,0,0,0,0,0,0,0,0,0,0,0,0,0,0,0,0,0,0,0,0,0,0,0,0,0,0,0,0,0,0,0,0,0,0,0,0,0,0,0,0,0,0,0,0,0,0,0,0,0,0,0,0],"id":6,"left_children":[1,3,5,7,9,11,13,15,17,19,21,23,-1,25,27,29,31,33,35,37,39,41,43,-1,45,47,49,51,53,55,57,59,61,-1,63,-1,65,-1,67,-1,69,71,73,75,77,-1,-1,-1,-1,79,-1,81,83,85,87,-1,-1,-1,-1,-1,-1,-1,-1,-1,-1,-1,-1,-1,-1,-1,-1,-1,-1,-1,-1,-1,-1,-1,-1,-1,-1,-1,-1,-1,-1,-1,-1,-1,-1],"loss_changes":[1.0397432E3,1.062813E3,7.9181903E2,7.6354266E2,3.4286323E3,3.6213745E1,5.7089435E2,7.2004517E2,5.762206E2,1.7909585E3,7.5893506E2,9.658569E0,0E0,1.1681152E3,4.1937488E2,6.320186E2,6.091934E2,2.8076773E2,3.1967175E2,7.3793994E2,8.915299E2,4.595765E2,2.681203E2,0E0,1.588974E-1,5.982483E1,7.0883224E1,4.5817386E2,3.6827002E2,2.5468135E2,1.2667223E3,5.856348E2,9.287545E2,0E0,2.15923E2,0E0,8.138021E0,0E0,9.1397705E2,0E0,1.9279794E2,6.1896686E2,3.5635437E2,5.674342E1,2.0561511E2,0E0,0E0,0E0,0E0,7.2738495E0,0E0,3.159506E2,2.797821E2,2.7832568E2,4.5063666E2,0E0,0E0,0E0,0E0,0E0,0E0,0E0,0E0,0E0,0E0,0E0,0E0,0E0,0E0,0E0,0E0,0E0,0E0,0E0,0E0,0E0,0E0,0E0,0E0,0E0,0E0,0E0,0E0,0E0,0E0,0E0,0E0,0E0,0E0],"parents":[2147483647,0,0,1,1,2,2,3,3,4,4,5,5,6,6,7,7,8,8,9,9,10,10,11,11,13,13,14,14,15,15,16,16,17,17,18,18,19,19,20,20,21,21,22,22,24,24,25,25,26,26,27,27,28,28,29,29,30,30,31,31,32,32,34,34,36,36,38,38,40,40,41,41,42,42,43,43,44,44,49,49,51,51,52,52,53,53,54,54],"right_children":[2,4,6,8,10,12,14,16,18,20,22,24,-1,26,28,30,32,34,36,38,40,42,44,-1,46,48,50,52,54,56,58,60,62,-1,64,-1,66,-1,68,-1,70,72,74,76,78,-1,-1,-1,-1,80,-1,82,84,86,88,-1,-1,-1,-1,-1,-1,-1,-1,-1,-1,-1,-1,-1,-1,-1,-1,-1,-1,-1,-1,-1,-1,-1,-1,-1,-1,-1,-1,-1,-1,-1,-1,-1,-1],"split_conditions":[1.6517596E2,1.4380405E2,1.665838E2,1.3775546E2,7.317167E0,1.7148247E1,1.675561E2,1.8391735E1,1.4000002E0,6.5E0,1.8446333E1,8.7734165E0,-5.3811383E-1,2E-1,1.3608762E1,6.233937E1,1.3650501E1,6.9527545E0,1.7148247E1,1.1304229E1,7.7999997E0,1.583877E2,1.1885453E1,-3.5383599E0,1.0263001E1,1.4423417E1,3.6999998E0,4.2E0,2.1842165E1,9.255571E0,1.7447933E1,-9.1825E-1,1.373175E1,2.9991674E0,1.57908325E1,-4.6279163E0,3.167167E0,7.0891404E0,1.5629971E1,-3.272008E0,1.14E1,1.8668005E1,7.7754993E0,1.8735918E1,1.9935919E1,-4.1996786E-1,-1.58194E0,6.0905347E0,1.360306E0,1.7E0,8.071066E-1,1.3513193E1,1.2984975E1,1.848874E2,1.7946703E2,1.0452136E0,-1.4618787E-1,5.546685E-1,3.4991407E0,3.5909584E-1,-1.3296187E0,7.037549E0,3.0314112E-1,-1.4454038E0,6.4943606E-1,7.192927E-2,-8.5130966E-1,9.8328984E-1,4.4989777E0,2.306841E0,-7.0409435E-1,-6.880517E-1,2.6807647E0,2.2057252E0,-2.2136884E0,6.6623783E-1,-1.4946911E0,4.43924E0,1.3294677E0,-5.6055605E-1,-1.8095015E0,1.4627943E-3,1.5676787E0,1.6865212E0,-3.080663E-1,3.5451746E-1,-2.5879586E-1,-2.1808076E0,1.9741813E0],"split_indices":[3,3,3,3,0,2,3,2,1,1,0,0,0,1,2,3,0,2,2,2,1,3,2,0,0,0,1,1,0,2,2,0,0,0,2,0,0,0,2,0,1,2,0,0,0,0,0,0,0,1,0,2,2,3,3,0,0,0,0,0,0,0,0,0,0,0,0,0,0,0,0,0,0,0,0,0,0,0,0,0,0,0,0,0,0,0,0,0,0],"split_type":[0,0,0,0,0,0,0,0,0,0,0,0,0,0,0,0,0,0,0,0,0,0,0,0,0,0,0,0,0,0,0,0,0,0,0,0,0,0,0,0,0,0,0,0,0,0,0,0,0,0,0,0,0,0,0,0,0,0,0,0,0,0,0,0,0,0,0,0,0,0,0,0,0,0,0,0,0,0,0,0,0,0,0,0,0,0,0,0,0],"sum_hessian":[2.266E3,6.73E2,1.593E3,5.58E2,1.15E2,8E0,1.585E3,5.31E2,2.7E1,4.9E1,6.6E1,7E0,1E0,9E0,1.576E3,4.19E2,1.12E2,1.9E1,8E0,3.6E1,1.3E1,5.1E1,1.5E1,5E0,2E0,4E0,5E0,3.85E2,1.191E3,1.73E2,2.46E2,8.6E1,2.6E1,1E0,1.8E1,5E0,3E0,6E0,3E1,4E0,9E0,3.1E1,2E1,3E0,1.2E1,1E0,1E0,3E0,1E0,4E0,1E0,3.52E2,3.3E1,1.177E3,1.4E1,1.7E1,1.56E2,2.33E2,1.3E1,2.6E1,6E1,1E0,2.5E1,1.2E1,6E0,1E0,2E0,1.1E1,1.9E1,7E0,2E0,2.6E1,5E0,1E0,1.9E1,1E0,2E0,2E0,1E1,2E0,2E0,3.41E2,1.1E1,2.5E1,8E0,7E1,1.107E3,2E0,1.2E1],"tree_param":{"num_deleted":"0","num_feature":"4","num_nodes":"89","size_leaf_vector":"1"}},{"base_weights":[4.7400042E-2,4.9482665E0,-1.3881947E-2,5.9180346E0,-2.3498507E0,3.0300185E-1,-8.1706554E-1,2.715978E0,9.160598E0,2.9091033E-1,-1.8462759E0,1.1306194E0,-1.7953022E-1,-3.7178805E-1,-2.3572397E0,6.933761E0,-2.4923427E0,1.1506825E1,1.5914359E0,1.7815853E0,-7.488292E-1,-4.226271E-1,3.633259E0,-7.586473E-1,2.5427368E0,-3.2460895E0,1.377581E0,2.1883717E0,9.343321E0,-2.234006E0,9.787315E-1,6.18314E-1,3.728975E0,-1.77386E-1,7.5483173E-1,8.7906164E-1,2.9110174E0,-5.767986E0,-2.8075925E-1,-4.752994E0,-3.4854794E-1,2.7271783E0,8.5653715E0,-5.3331393E-1,-3.6853158E0,7.403471E0,-2.2407312E0,-3.949167E0,-4.1570553E-1,3.5149295E0,-1.3589696E0,9.6427083E-1,-1.3338318E-1,3.1531758E0,7.011389E-1,-1.511324E-1,1.0363135E0,8.0734354E-1,-5.5163723E-1,-2.1951394E-1,1.4088774E0,-2.7112813E0,1.1544168E0,-1.4926428E-1,2.1805885E0,-1.7057178E0,-1.6001044E-1,1.406804E-1,-2.3540433E-1,1.2191445E0,2.8282523E-1,5.754404E-1,2.746953E0,-4.091224E-2,-5.717513E-1,-2.04707E0,-4.0323836E-1,3.2410135E0,-4.0567583E-1,1.6292442E0,-1.1976819E0,-1.4213464E0,-4.9381843E-1,-1.0496377E0,2.4191023E-1,3.3481812E0,4.8765132E-1,-5.691112E-1,7.646768E-1],"categories":[],"categories_nodes":[],"categories_segments":[],"categories_sizes":[],"default_left":[0,0,0,0,0,0,0,0,0,0,0,0,0,0,0,0,0,0,0,0,0,0,0,0,0,0,0,0,0,0,0,0,0,0,0,0,0,0,0,0,0,0,0,0,0,0,0,0,0,0,0,0,0,0,0,0,0,0,0,0,0,0,0,0,0,0,0,0,0,0,0,0,0,0,0,0,0,0,0,0,0,0,0,0,0,0,0,0,0],"id":7,"left_children":[1,3,5,7,9,11,13,15,17,-1,-1,19,21,23,25,27,29,31,33,35,37,39,41,43,45,47,49,51,53,-1,55,-1,-1,-1,-1,57,59,61,63,65,67,69,71,73,75,77,79,81,83,85,87,-1,-1,-1,-1,-1,-1,-1,-1,-1,-1,-1,-1,-1,-1,-1,-1,-1,-1,-1,-1,-1,-1,-1,-1,-1,-1,-1,-1,-1,-1,-1,-1,-1,-1,-1,-1,-1,-1],"loss_changes":[6.8092773E2,2.1207605E2,5.7036316E2,2.3469171E2,5.6483425E1,6.419616E2,4.3392383E2,3.2482727E2,1.9479529E2,0E0,0E0,7.256208E2,9.432427E2,5.57792E2,4.758684E2,7.102774E1,1.27666565E2,5.2855225E1,9.560929E0,4.459502E2,3.5782602E2,3.0501855E2,2.492431E2,2.8556616E2,1.365157E3,2.2720605E2,1.6854764E2,1.2233412E1,1.6325806E1,0E0,2.0091034E1,0E0,0E0,0E0,0E0,1.2164923E3,1.2715503E3,4.4350742E2,2.3437975E2,5.993988E1,3.358639E2,1.2258075E2,1.7801514E1,2.2093262E2,2.1859253E2,8.7789954E2,4.2479218E2,1.5930566E2,9.3247475E1,2.1299324E2,3.2170647E1,0E0,0E0,0E0,0E0,0E0,0E0,0E0,0E0,0E0,0E0,0E0,0E0,0E0,0E0,0E0,0E0,0E0,0E0,0E0,0E0,0E0,0E0,0E0,0E0,0E0,0E0,0E0,0E0,0E0,0E0,0E0,0E0,0E0,0E0,0E0,0E0,0E0,0E0],"parents":[2147483647,0,0,1,1,2,2,3,3,4,4,5,5,6,6,7,7,8,8,11,11,12,12,13,13,14,14,15,15,16,16,17,17,18,18,19,19,20,20,21,21,22,22,23,23,24,24,25,25,26,26,27,27,28,28,30,30,35,35,36,36,37,37,38,38,39,39,40,40,41,41,42,42,43,43,44,44,45,45,46,46,47,47,48,48,49,49,50,50],"right_children":[2,4,6,8,10,12,14,16,18,-1,-1,20,22,24,26,28,30,32,34,36,38,40,42,44,46,48,50,52,54,-1,56,-1,-1,-1,-1,58,60,62,64,66,68,70,72,74,76,78,80,82,84,86,88,-1,-1,-1,-1,-1,-1,-1,-1,-1,-1,-1,-1,-1,-1,-1,-1,-1,-1,-1,-1,-1,-1,-1,-1,-1,-1,-1,-1,-1,-1,-1,-1,-1,-1,-1,-1,-1,-1],"split_conditions":[7.928178E0,2.8806052E2,2.6255936E2,1.8755002E0,-2.53075E0,1E-1,1.1248418E1,-7.7658343E-1,3.6E0,2.9091033E-1,-1.8462759E0,1.6029665E1,1.9390083E1,7.9505E0,2.1000001E0,-6.130749E0,1E-1,6.842657E1,1.373175E1,1.5683774E1,1.6442167E1,-5.622417E0,5.0999994E0,6.619251E0,2.9935767E2,3.3488123E2,1.5273505E1,-8.934917E0,2E-1,-2.234006E0,9.195254E1,6.18314E-1,3.728975E0,-1.77386E-1,7.5483173E-1,7.0942492E0,3.967167E0,1.767987E2,2.334455E1,1.9459251E2,1.583877E2,1.57908325E1,1.000256E1,2.0991426E1,2.9315506E2,8.000001E-1,8.550501E0,1.7110914E1,1.3492167E1,1.3312999E1,1.33E1,9.6427083E-1,-1.3338318E-1,3.1531758E0,7.011389E-1,-1.511324E-1,1.0363135E0,8.0734354E-1,-5.5163723E-1,-2.1951394E-1,1.4088774E0,-2.7112813E0,1.1544168E0,-1.4926428E-1,2.1805885E0,-1.7057178E0,-1.6001044E-1,1.406804E-1,-2.3540433E-1,1.2191445E0,2.8282523E-1,5.754404E-1,2.746953E0,-4.091224E-2,-5.717513E-1,-2.04707E0,-4.0323836E-1,3.2410135E0,-4.0567583E-1,1.6292442E0,-1.1976819E0,-1.4213464E0,-4.9381843E-1,-1.0496377E0,2.4191023E-1,3.3481812E0,4.8765132E-1,-5.691112E-1,7.646768E-1],"split_indices":[2,3,3,0,0,1,0,0,1,0,0,0,0,0,1,0,1,3,0,2,0,0,1,0,3,3,2,0,1,0,3,0,0,0,0,0,0,3,2,3,3,2,2,2,3,1,0,0,0,0,1,0,0,0,0,0,0,0,0,0,0,0,0,0,0,0,0,0,0,0,0,0,0,0,0,0,0,0,0,0,0,0,0,0,0,0,0,0,0],"split_type":[0,0,0,0,0,0,0,0,0,0,0,0,0,0,0,0,0,0,0,0,0,0,0,0,0,0,0,0,0,0,0,0,0,0,0,0,0,0,0,0,0,0,0,0,0,0,0,0,0,0,0,0,0,0,0,0,0,0,0,0,0,0,0,0,0,0,0,0,0,0,0,0,0,0,0,0,0,0,0,0,0,0,0,0,0,0,0,0,0],"sum_hessian":[2.266E3,2.7E1,2.239E3,2.4E1,3E0,1.606E3,6.33E2,1.3E1,1.1E1,2E0,1E0,5.91E2,1.015E3,4.92E2,1.41E2,7E0,6E0,8E0,3E0,4.39E2,1.52E2,9.55E2,6E1,4.35E2,5.7E1,1.14E2,2.7E1,3E0,4E0,2E0,4E0,1E0,7E0,1E0,2E0,2.45E2,1.94E2,1.2E1,1.4E2,1.5E1,9.4E2,5.2E1,8E0,4.05E2,3E1,2.8E1,2.9E1,9.1E1,2.3E1,1.5E1,1.2E1,2E0,1E0,3E0,1E0,3E0,1E0,1.47E2,9.8E1,6.4E1,1.3E2,9E0,3E0,1.37E2,3E0,1.2E1,3E0,3.27E2,6.13E2,2.9E1,2.3E1,1E0,7E0,3.15E2,9E1,1.2E1,1.8E1,2E1,8E0,5E0,2.4E1,6.7E1,2.4E1,6E0,1.7E1,2E0,1.3E1,1.1E1,1E0],"tree_param":{"num_deleted":"0","num_feature":"4","num_nodes":"89","size_leaf_vector":"1"}},{"base_weights":[3.891527E-2,2.3032691E0,-4.4967484E-2,7.179723E-1,4.2649465E0,-7.138968E0,-1.8913828E-2,3.7032776E0,-3.719213E0,6.397427E0,-1.335144E-5,-2.3394592E0,-3.786544E-1,2.9716948E-1,-5.0441045E-1,4.4730687E0,-2.0337362E0,-5.2639327E0,3.3894691E0,1.0229298E1,9.389168E-1,1.7355161E0,-2.3140388E0,-5.484723E-1,5.759153E-1,-5.641389E-1,2.6815236E0,2.139497E0,6.8228135E0,2.3272859E-1,-1.5693346E0,-6.2944546E0,1.2998136E0,1.3264592E0,4.3992806E-2,4.187027E0,2.9332256E0,-1.9808619E0,1.9631236E0,-5.5605893E0,2.04463E0,1.5724514E0,-1.5402067E0,7.5785418E0,3.7255493E-1,3.5946138E0,-6.0818267E-1,4.070961E0,-2.5045292E0,1.631785E0,-5.8119893E-1,3.3312674E0,9.8822397E-1,-2.0661469E0,2.1159898E-1,-3.0457366E-1,8.8948977E-1,-2.4487038E0,3.1564796E0,1.4128025E0,-1.498746E0,-1.9564592E0,-1.1338291E-1,1.2008204E0,-1.7850533E-1,2.0599326E-1,1.8352247E0,-1.438406E0,-3.0948573E-1,1.0698323E0,3.7893836E0,1.7079574E-1,-9.517945E-1,1.8804665E0,-3.9433524E-1,-1.3305727E-1,-4.4765794E-1,1.5695734E0,4.525366E-2,-1.2327104E-1,-9.19631E-1],"categories":[],"categories_nodes":[],"categories_segments":[],"categories_sizes":[],"default_left":[0,0,0,0,0,0,0,0,0,0,0,0,0,0,0,0,0,0,0,0,0,0,0,0,0,0,0,0,0,0,0,0,0,0,0,0,0,0,0,0,0,0,0,0,0,0,0,0,0,0,0,0,0,0,0,0,0,0,0,0,0,0,0,0,0,0,0,0,0,0,0,0,0,0,0,0,0,0,0,0,0],"id":8,"left_children":[1,3,5,7,9,11,13,15,17,19,21,-1,-1,23,25,27,29,31,33,35,37,-1,39,41,43,45,47,49,51,-1,-1,53,55,-1,-1,-1,57,59,-1,61,63,65,67,69,71,73,75,77,79,-1,-1,-1,-1,-1,-1,-1,-1,-1,-1,-1,-1,-1,-1,-1,-1,-1,-1,-1,-1,-1,-1,-1,-1,-1,-1,-1,-1,-1,-1,-1,-1],"loss_changes":[4.306981E2,2.4883499E2,4.0407648E2,6.231056E2,3.274181E2,2.1150482E1,3.34687E2,1.3275348E2,2.2647943E2,4.9238684E2,1.8741512E2,0E0,0E0,3.1170078E2,1.6516292E2,1.2248508E2,3.999022E1,1.1640698E2,1.2738796E1,3.398031E2,1.929757E2,0E0,1.5287575E2,6.9233484E2,1.4126888E3,1.569624E2,1.2548698E2,1.9887491E2,1.4471729E2,0E0,0E0,6.2940613E1,1.4574945E1,0E0,0E0,0E0,5.910649E2,1.8489252E2,0E0,2.741652E1,2.8225224E1,4.1852545E2,3.6581586E2,5.22621E2,6.763556E2,1.2636348E2,1.2117175E2,5.8374542E1,3.4377213E0,0E0,0E0,0E0,0E0,0E0,0E0,0E0,0E0,0E0,0E0,0E0,0E0,0E0,0E0,0E0,0E0,0E0,0E0,0E0,0E0,0E0,0E0,0E0,0E0,0E0,0E0,0E0,0E0,0E0,0E0,0E0,0E0],"parents":[2147483647,0,0,1,1,2,2,3,3,4,4,5,5,6,6,7,7,8,8,9,9,10,10,13,13,14,14,15,15,16,16,17,17,18,18,19,19,20,20,22,22,23,23,24,24,25,25,26,26,27,27,28,28,31,31,32,32,36,36,37,37,39,39,40,40,41,41,42,42,43,43,44,44,45,45,46,46,47,47,48,48],"right_children":[2,4,6,8,10,12,14,16,18,20,22,-1,-1,24,26,28,30,32,34,36,38,-1,40,42,44,46,48,50,52,-1,-1,54,56,-1,-1,-1,58,60,-1,62,64,66,68,70,72,74,76,78,80,-1,-1,-1,-1,-1,-1,-1,-1,-1,-1,-1,-1,-1,-1,-1,-1,-1,-1,-1,-1,-1,-1,-1,-1,-1,-1,-1,-1,-1,-1,-1,-1],"split_conditions":[9.255571E0,8.473393E0,9.422101E0,7.928178E0,1.2594249E1,1.4951562E2,2.4385512E2,2.8806052E2,1.3021333E1,2.2933028E2,1E-1,-2.3394592E0,-3.786544E-1,2.3213332E0,1.2400001E1,1.8755002E0,-2.53075E0,1.1000001E0,1.6029665E1,6.052583E0,-5.991674E-2,1.7355161E0,1.6442167E1,1.3608762E1,2.6192496E0,-1.054325E1,2.0991426E1,-7.7658343E-1,3E-1,2.3272859E-1,-1.5693346E0,3.375418E2,7.713333E-1,1.3264592E0,4.3992806E-2,4.187027E0,7.5046678E0,-6.3578334E0,1.9631236E0,1.2000002E0,1.7362999E1,1.2000002E0,1.4799459E1,1.8798141E2,2.6161375E1,1.2144331E1,2.291026E1,1.58E1,1.79425E0,1.631785E0,-5.8119893E-1,3.3312674E0,9.8822397E-1,-2.0661469E0,2.1159898E-1,-3.0457366E-1,8.8948977E-1,-2.4487038E0,3.1564796E0,1.4128025E0,-1.498746E0,-1.9564592E0,-1.1338291E-1,1.2008204E0,-1.7850533E-1,2.0599326E-1,1.8352247E0,-1.438406E0,-3.0948573E-1,1.0698323E0,3.7893836E0,1.7079574E-1,-9.517945E-1,1.8804665E0,-3.9433524E-1,-1.3305727E-1,-4.4765794E-1,1.5695734E0,4.525366E-2,-1.2327104E-1,-9.19631E-1],"split_indices":[2,2,2,2,0,3,3,3,0,3,1,0,0,0,1,0,0,1,0,0,0,0,0,2,0,0,2,0,1,0,0,3,0,0,0,0,0,0,0,1,0,1,2,3,2,2,2,1,0,0,0,0,0,0,0,0,0,0,0,0,0,0,0,0,0,0,0,0,0,0,0,0,0,0,0,0,0,0,0,0,0],"split_type":[0,0,0,0,0,0,0,0,0,0,0,0,0,0,0,0,0,0,0,0,0,0,0,0,0,0,0,0,0,0,0,0,0,0,0,0,0,0,0,0,0,0,0,0,0,0,0,0,0,0,0,0,0,0,0,0,0,0,0,0,0,0,0,0,0,0,0,0,0,0,0,0,0,0,0,0,0,0,0,0,0],"sum_hessian":[2.266E3,8E1,2.186E3,4.5E1,3.5E1,7E0,2.179E3,2.7E1,1.8E1,2.3E1,1.2E1,6E0,1E0,1.32E3,8.59E2,2.4E1,3E0,1.5E1,3E0,1.3E1,1E1,3E0,9E0,3.27E2,9.93E2,8.44E2,1.5E1,1.3E1,1.1E1,2E0,1E0,1.3E1,2E0,2E0,1E0,8E0,5E0,7E0,3E0,5E0,4E0,1.04E2,2.23E2,2.7E1,9.66E2,8E0,8.36E2,1.2E1,3E0,7E0,6E0,4E0,7E0,1.2E1,1E0,1E0,1E0,2E0,3E0,2E0,5E0,4E0,1E0,2E0,2E0,8.8E1,1.6E1,2.9E1,1.94E2,1.6E1,1.1E1,9.16E2,5E1,5E0,3E0,7.06E2,1.3E2,9E0,3E0,1E0,2E0],"tree_param":{"num_deleted":"0","num_feature":"4","num_nodes":"81","size_leaf_vector":"1"}},{"base_weights":[3.373609E-2,1.7554274E0,-3.0045679E-2,7.570337E-1,3.618207E0,-8.902078E-2,1.9276601E0,2.7363467E0,-1.3236254E0,5.8527045E0,1.5115134E-1,1.356655E-1,-7.788351E-1,1.0056225E0,4.8726077E0,3.3459508E0,-1.7577662E0,-2.5981426E0,1.5140915E0,9.13851E0,1.0138597E0,-1.6743227E0,1.8557043E0,4.3385044E-2,4.2685905E0,-5.779236E0,-3.1788218E-1,2.1848984E-1,5.110758E0,6.263763E0,8.375454E-1,-1.09695755E-1,4.2153473E0,1.8618317E-1,-1.3339345E0,-3.7641048E0,2.7152414E0,2.5921266E0,-1.5060209E0,3.7593703E0,3.23954E0,-2.1737928E0,3.2289755E0,1.868878E0,6.775396E-1,3.970549E-1,-5.0004536E-1,1.4745625E1,7.4785344E-2,-9.647623E0,-2.7300591E0,1.6425968E0,-8.9301515E-1,4.1129827E0,-5.242112E-1,7.301069E0,-1.5332125E0,7.403014E0,7.580884E-1,-5.823618E-1,2.0175347E0,2.7921453E-1,-4.381035E-1,4.742924E-1,1.7519544E0,-1.3053224E0,7.5606656E-1,1.0611674E0,3.7393857E-2,1.3446869E0,1.6179658E-2,7.468586E-1,-1.424568E0,-1.3664596E0,2.9862297E0,1.2526534E0,-3.675356E-1,-7.6954156E-2,1.2224951E0,3.554984E-2,8.9898807E-1,-6.692748E-1,-5.2240413E-2,1.0028749E1,1.7688283E0,1.0450858E0,-1.7183133E0,-1.1489296E0,-3.6114576E0,-1.8502446E0,-5.8860634E-2,1.9160274E-1,4.27118E0,-3.2890552E-1,1.0216988E0,-2.9514696E-2,1.7451615E0,-5.33969E-1,5.7926774E-1,2.9074903E0,2.6493093E-1,3.8175946E-1,2.4030774E0,-6.3468707E-1,9.7582686E-1,7.848902E-2,7.546879E-1],"categories":[],"categories_nodes":[],"categories_segments":[],"categories_sizes":[],"default_left":[0,0,0,0,0,0,0,0,0,0,0,0,0,0,0,0,0,0,0,0,0,0,0,0,0,0,0,0,0,0,0,0,0,0,0,0,0,0,0,0,0,0,0,0,0,0,0,0,0,0,0,0,0,0,0,0,0,0,0,0,0,0,0,0,0,0,0,0,0,0,0,0,0,0,0,0,0,0,0,0,0,0,0,0,0,0,0,0,0,0,0,0,0,0,0,0,0,0,0,0,0,0,0,0,0,0,0],"id":9,"left_children":[1,3,5,7,9,11,13,15,17,19,21,23,25,27,29,31,33,35,37,39,41,-1,43,45,47,49,51,53,55,57,59,61,63,-1,-1,65,67,69,71,-1,73,-1,75,-1,77,79,81,83,85,87,89,91,93,95,97,99,-1,101,103,-1,105,-1,-1,-1,-1,-1,-1,-1,-1,-1,-1,-1,-1,-1,-1,-1,-1,-1,-1,-1,-1,-1,-1,-1,-1,-1,-1,-1,-1,-1,-1,-1,-1,-1,-1,-1,-1,-1,-1,-1,-1,-1,-1,-1,-1,-1,-1],"loss_changes":[2.4899773E2,1.4790366E2,2.5267366E2,2.2600877E2,2.1603497E2,3.293083E2,1.6888258E2,8.259105E1,1.01585236E2,2.610263E2,1.27607445E2,6.1118005E2,1.2013464E3,1.6044766E2,7.895477E1,7.557059E1,2.8338308E1,1.2792937E2,3.320588E1,1.5954028E2,1.6976901E2,0E0,4.7310814E1,3.017524E2,1.5367498E3,4.9265906E2,5.4155664E2,1.26531166E2,2.1641911E2,6.3383636E1,2.0310936E1,9.790545E0,7.6358154E1,0E0,0E0,6.998503E1,8.076799E0,3.3341465E1,5.068885E1,0E0,3.0701956E2,0E0,3.4627197E1,0E0,2.9605839E1,6.882877E2,3.4879514E2,1.456304E3,5.3422656E2,2.181482E2,2.2524835E2,1.3691089E3,3.28017E2,5.0812027E1,1.1750178E2,9.883923E1,0E0,2.3310944E1,2.8388475E1,0E0,2.8402405E0,0E0,0E0,0E0,0E0,0E0,0E0,0E0,0E0,0E0,0E0,0E0,0E0,0E0,0E0,0E0,0E0,0E0,0E0,0E0,0E0,0E0,0E0,0E0,0E0,0E0,0E0,0E0,0E0,0E0,0E0,0E0,0E0,0E0,0E0,0E0,0E0,0E0,0E0,0E0,0E0,0E0,0E0,0E0,0E0,0E0,0E0],"parents":[2147483647,0,0,1,1,2,2,3,3,4,4,5,5,6,6,7,7,8,8,9,9,10,10,11,11,12,12,13,13,14,14,15,15,16,16,17,17,18,18,19,19,20,20,22,22,23,23,24,24,25,25,26,26,27,27,28,28,29,29,30,30,31,31,32,32,35,35,36,36,37,37,38,38,40,40,42,42,44,44,45,45,46,46,47,47,48,48,49,49,50,50,51,51,52,52,53,53,54,54,55,55,57,57,58,58,60,60],"right_children":[2,4,6,8,10,12,14,16,18,20,22,24,26,28,30,32,34,36,38,40,42,-1,44,46,48,50,52,54,56,58,60,62,64,-1,-1,66,68,70,72,-1,74,-1,76,-1,78,80,82,84,86,88,90,92,94,96,98,100,-1,102,104,-1,106,-1,-1,-1,-1,-1,-1,-1,-1,-1,-1,-1,-1,-1,-1,-1,-1,-1,-1,-1,-1,-1,-1,-1,-1,-1,-1,-1,-1,-1,-1,-1,-1,-1,-1,-1,-1,-1,-1,-1,-1,-1,-1,-1,-1,-1,-1],"split_conditions":[9.255571E0,8.669949E0,2.0958834E1,7.928178E0,1.1248418E1,1.373175E1,8.000001E-1,2.8806052E2,8.473393E0,2.2933028E2,1.5481751E1,1.3423417E1,1.4281751E1,1.7906157E1,1.7298738E1,6.1458973E1,-2.53075E0,1.3021333E1,2.6255936E2,4.223417E0,2.4320393E2,-1.6743227E0,1.5844249E1,1.825026E1,1.3492167E1,1.9989775E2,1.3775546E2,7.949978E1,2.3406752E1,4.3E0,1.7373497E1,7.653705E0,1.1088334E0,1.8618317E-1,-1.3339345E0,1.2E0,1.6029665E1,6.052583E0,-3.3453338E0,3.7593703E0,7.5046678E0,-2.1737928E0,9.021574E0,1.868878E0,3.7999997E0,1.7373497E1,1.5171207E2,1E-1,7E-1,5.182114E1,1.4332341E1,1.2480149E2,1.1E1,2.262967E1,2.0385179E2,1.9935907E2,-1.5332125E0,1.1760895E2,2.1842165E1,-5.823618E-1,2.6E0,2.7921453E-1,-4.381035E-1,4.742924E-1,1.7519544E0,-1.3053224E0,7.5606656E-1,1.0611674E0,3.7393857E-2,1.3446869E0,1.6179658E-2,7.468586E-1,-1.424568E0,-1.3664596E0,2.9862297E0,1.2526534E0,-3.675356E-1,-7.6954156E-2,1.2224951E0,3.554984E-2,8.9898807E-1,-6.692748E-1,-5.2240413E-2,1.0028749E1,1.7688283E0,1.0450858E0,-1.7183133E0,-1.1489296E0,-3.6114576E0,-1.8502446E0,-5.8860634E-2,1.9160274E-1,4.27118E0,-3.2890552E-1,1.0216988E0,-2.9514696E-2,1.7451615E0,-5.33969E-1,5.7926774E-1,2.9074903E0,2.6493093E-1,3.8175946E-1,2.4030774E0,-6.3468707E-1,9.7582686E-1,7.848902E-2,7.546879E-1],"split_indices":[2,2,0,2,0,0,1,3,2,3,0,0,0,2,2,3,0,0,3,0,3,0,0,2,0,3,3,3,0,1,2,2,0,0,0,1,0,0,0,0,0,0,2,0,1,2,3,1,1,3,2,3,1,0,3,3,0,3,0,0,1,0,0,0,0,0,0,0,0,0,0,0,0,0,0,0,0,0,0,0,0,0,0,0,0,0,0,0,0,0,0,0,0,0,0,0,0,0,0,0,0,0,0,0,0,0,0],"split_type":[0,0,0,0,0,0,0,0,0,0,0,0,0,0,0,0,0,0,0,0,0,0,0,0,0,0,0,0,0,0,0,0,0,0,0,0,0,0,0,0,0,0,0,0,0,0,0,0,0,0,0,0,0,0,0,0,0,0,0,0,0,0,0,0,0,0,0,0,0,0,0,0,0,0,0,0,0,0,0,0,0,0,0,0,0,0,0,0,0,0,0,0,0,0,0,0,0,0,0,0,0,0,0,0,0,0,0],"sum_hessian":[2.266E3,8E1,2.186E3,5.3E1,2.7E1,2.123E3,6.3E1,2.7E1,2.6E1,1.6E1,1.1E1,1.602E3,5.21E2,4.9E1,1.4E1,2.4E1,3E0,1.8E1,8E0,9E0,7E0,2E0,9E0,1.568E3,3.4E1,4.3E1,4.78E2,4.2E1,7E0,1E1,4E0,5E0,1.9E1,2E0,1E0,1.5E1,3E0,6E0,2E0,5E0,4E0,1E0,6E0,1E0,8E0,9.5E2,6.18E2,9E0,2.5E1,1.8E1,2.5E1,1.08E2,3.7E2,6E0,3.6E1,6E0,1E0,8E0,2E0,1E0,3E0,3E0,2E0,8E0,1.1E1,1.4E1,1E0,2E0,1E0,3E0,3E0,1E0,1E0,2E0,2E0,5E0,1E0,7E0,1E0,8.59E2,9.1E1,9.7E1,5.21E2,2E0,7E0,1.6E1,9E0,6E0,1.2E1,1E1,1.5E1,1.01E2,7E0,3.54E2,1.6E1,2E0,4E0,2.4E1,1.2E1,4E0,2E0,1E0,7E0,1E0,1E0,1E0,2E0],"tree_param":{"num_deleted":"0","num_feature":"4","num_nodes":"107","size_leaf_vector":"1"}},{"base_weights":[3.428288E-2,1.772921E-1,-5.371995E-1,4.069642E-1,-3.7988895E-1,-3.4935906E0,-4.0713382E-1,3.1961194E-1,1.43106165E1,-6.709472E-1,1.8279532E0,-4.671868E0,4.3478427E0,1.4718608E0,-6.2179613E-1,7.8700966E-1,-2.3892738E-1,2.031577E1,-2.4698937E0,-1.4414572E0,2.1521236E-1,5.770375E0,5.578642E-1,6.09567E-1,-5.416697E0,2.057723E0,-1.01193815E-1,-4.259561E0,2.6397426E0,-6.8781847E-1,3.740277E0,-2.5645137E-1,1.7785776E0,-4.1268883E0,2.4497619E-2,5.7203355E0,7.8550205E0,-1.419321E0,3.078687E-1,-4.510467E0,-9.232821E-1,3.2682788E0,-6.1547744E-1,1.4844093E0,7.7649164E0,-5.844882E-1,1.9344846E0,1.9963835E0,-1.7220784E0,-5.8553004E0,-1.7105147E0,-9.726443E-1,-1.8111546E0,1.0300555E0,6.04156E0,-4.3683162E-1,-2.0757313E0,3.6552541E0,-3.5277197E0,4.3284392E-1,-4.2310593E-1,2.9849331E0,4.6882883E-1,-1.7856041E0,4.188454E-1,8.745272E-1,-9.531126E-2,2.527755E0,4.6396066E-2,-2.1818967E-1,-2.475969E0,3.1056705E-1,-5.668242E-1,1.7168536E0,-8.778778E-1,-1.7305475E0,6.0459604E-3,8.842362E-1,-8.7462217E-1,-1.5256663E-1,2.622209E0,2.1268792E-1,-6.7811346E-1,1.283149E0,8.7089874E-2,-1.8327166E0,-4.2153683E-1,-1.2119666E-1,-6.48535E-1,-7.2036064E-1,4.9695426E-1,-1.3037425E-1,1.8686138E0,6.742173E-2,2.1547353E0,-1.9453062E-1,7.219833E-1,1.2522048E-1,-1.009489E0,-1.5851794E0,2.6113716E-1],"categories":[],"categories_nodes":[],"categories_segments":[],"categories_sizes":[],"default_left":[0,0,0,0,0,0,0,0,0,0,0,0,0,0,0,0,0,0,0,0,0,0,0,0,0,0,0,0,0,0,0,0,0,0,0,0,0,0,0,0,0,0,0,0,0,0,0,0,0,0,0,0,0,0,0,0,0,0,0,0,0,0,0,0,0,0,0,0,0,0,0,0,0,0,0,0,0,0,0,0,0,0,0,0,0,0,0,0,0,0,0,0,0,0,0,0,0,0,0,0,0],"id":10,"left_children":[1,3,5,7,9,11,13,15,17,19,21,23,25,27,29,31,33,35,37,39,41,43,45,47,49,-1,-1,51,53,55,57,59,61,63,65,67,-1,-1,-1,69,71,73,75,77,79,81,83,-1,-1,85,87,89,-1,91,93,95,97,-1,99,-1,-1,-1,-1,-1,-1,-1,-1,-1,-1,-1,-1,-1,-1,-1,-1,-1,-1,-1,-1,-1,-1,-1,-1,-1,-1,-1,-1,-1,-1,-1,-1,-1,-1,-1,-1,-1,-1,-1,-1,-1,-1],"loss_changes":[1.853709E2,2.3229025E2,1.7315198E2,1.5560784E3,3.4181015E2,1.958608E2,1.7677548E2,3.3382272E2,8.5633374E2,3.2054095E2,3.0722894E2,7.017584E1,3.7610226E1,3.124572E2,1.15466385E2,7.205812E2,5.9720154E2,3.6406616E2,2.8571203E1,3.9499695E2,5.574286E2,1.1670172E2,7.661479E1,1.5335419E2,1.4367645E1,0E0,0E0,4.0871094E1,2.0185962E2,1.3390385E2,4.1120395E2,6.687014E2,6.1400806E2,3.812787E2,5.4200006E2,4.3871017E1,0E0,0E0,0E0,5.037395E2,4.1066568E2,7.3137683E2,5.6676276E2,4.72158E1,8.517609E1,6.0129776E1,8.349789E1,0E0,0E0,6.0963135E0,8.954458E-1,1.9001244E1,0E0,2.0828873E2,7.8022125E1,1.9951425E2,1.9104393E2,0E0,3.5495953E1,0E0,0E0,0E0,0E0,0E0,0E0,0E0,0E0,0E0,0E0,0E0,0E0,0E0,0E0,0E0,0E0,0E0,0E0,0E0,0E0,0E0,0E0,0E0,0E0,0E0,0E0,0E0,0E0,0E0,0E0,0E0,0E0,0E0,0E0,0E0,0E0,0E0,0E0,0E0,0E0,0E0,0E0],"parents":[2147483647,0,0,1,1,2,2,3,3,4,4,5,5,6,6,7,7,8,8,9,9,10,10,11,11,12,12,13,13,14,14,15,15,16,16,17,17,18,18,19,19,20,20,21,21,22,22,23,23,24,24,27,27,28,28,29,29,30,30,31,31,32,32,33,33,34,34,35,35,39,39,40,40,41,41,42,42,43,43,44,44,45,45,46,46,49,49,50,50,51,51,53,53,54,54,55,55,56,56,58,58],"right_children":[2,4,6,8,10,12,14,16,18,20,22,24,26,28,30,32,34,36,38,40,42,44,46,48,50,-1,-1,52,54,56,58,60,62,64,66,68,-1,-1,-1,70,72,74,76,78,80,82,84,-1,-1,86,88,90,-1,92,94,96,98,-1,100,-1,-1,-1,-1,-1,-1,-1,-1,-1,-1,-1,-1,-1,-1,-1,-1,-1,-1,-1,-1,-1,-1,-1,-1,-1,-1,-1,-1,-1,-1,-1,-1,-1,-1,-1,-1,-1,-1,-1,-1,-1,-1],"split_conditions":[2.8400363E2,1.6000001E0,2.86321E2,1.6E0,1.6950499E1,6E-1,-4.9370003E0,9.229667E0,9.3775835E0,4.799999E0,1.3276144E1,1.0464797E1,-2.6786668E0,3.0533786E2,3.1485083E1,2.3213332E0,1.0340083E1,3.167167E0,1.1067165E1,1.2984975E1,5.6000004E0,1.0239453E1,1.9692167E1,9.792167E0,2.0774214E1,2.057723E0,-1.01193815E-1,-8.934917E0,-6.130749E0,2.233161E1,2E-1,-1.7265834E0,2.3921669E0,2.0211363E1,1.180675E1,-4.501583E0,7.8550205E0,-1.419321E0,3.078687E-1,1.1183201E1,1.5521786E2,2.27057E1,6.1999993E0,1.0163227E1,1.9000001E0,6.0999994E0,2.0558832E1,1.9963835E0,-1.7220784E0,1.4510918E1,-1.3494998E0,1.1792404E1,-1.8111546E0,1.3513193E1,3.1581677E2,2.0774214E1,1.3400831E0,3.6552541E0,-5.224166E-1,4.3284392E-1,-4.2310593E-1,2.9849331E0,4.6882883E-1,-1.7856041E0,4.188454E-1,8.745272E-1,-9.531126E-2,2.527755E0,4.6396066E-2,-2.1818967E-1,-2.475969E0,3.1056705E-1,-5.668242E-1,1.7168536E0,-8.778778E-1,-1.7305475E0,6.0459604E-3,8.842362E-1,-8.7462217E-1,-1.5256663E-1,2.622209E0,2.1268792E-1,-6.7811346E-1,1.283149E0,8.7089874E-2,-1.8327166E0,-4.2153683E-1,-1.2119666E-1,-6.48535E-1,-7.2036064E-1,4.9695426E-1,-1.3037425E-1,1.8686138E0,6.742173E-2,2.1547353E0,-1.9453062E-1,7.219833E-1,1.2522048E-1,-1.009489E0,-1.5851794E0,2.6113716E-1],"split_indices":[3,1,3,1,0,1,0,0,0,1,2,2,0,3,2,0,0,0,0,2,1,2,0,0,2,0,0,0,0,2,1,0,0,2,0,0,0,0,0,2,3,2,1,2,1,1,0,0,0,0,0,2,0,2,3,2,0,0,0,0,0,0,0,0,0,0,0,0,0,0,0,0,0,0,0,0,0,0,0,0,0,0,0,0,0,0,0,0,0,0,0,0,0,0,0,0,0,0,0,0,0],"split_type":[0,0,0,0,0,0,0,0,0,0,0,0,0,0,0,0,0,0,0,0,0,0,0,0,0,0,0,0,0,0,0,0,0,0,0,0,0,0,0,0,0,0,0,0,0,0,0,0,0,0,0,0,0,0,0,0,0,0,0,0,0,0,0,0,0,0,0,0,0,0,0,0,0,0,0,0,0,0,0,0,0,0,0,0,0,0,0,0,0,0,0,0,0,0,0,0,0,0,0,0,0],"sum_hessian":[2.266E3,1.813E3,4.53E2,1.284E3,5.29E2,1.8E1,4.35E2,1.277E3,7E0,4.68E2,6.1E1,1.6E1,2E0,4.4E1,3.91E2,6.95E2,5.82E2,5E0,2E0,2.5E2,2.18E2,1.4E1,4.7E1,2E0,1.4E1,1E0,1E0,7E0,3.7E1,3.86E2,5E0,3.39E2,3.56E2,3.6E1,5.46E2,2E0,3E0,1E0,1E0,3.5E1,2.15E2,4.6E1,1.72E2,5E0,9E0,2.6E1,2.1E1,1E0,1E0,1.2E1,2E0,3E0,4E0,2.6E1,1.1E1,3.28E2,5.8E1,2E0,3E0,1.37E2,2.02E2,8E0,3.48E2,2.7E1,9E0,5.7E1,4.89E2,1E0,1E0,1.8E1,1.7E1,7.1E1,1.44E2,3.3E1,1.3E1,1.8E1,1.54E2,4E0,1E0,1E0,8E0,1.5E1,1.1E1,8E0,1.3E1,1.1E1,1E0,1E0,1E0,2E0,1E0,2.1E1,5E0,2E0,9E0,3.06E2,2.2E1,2E1,3.8E1,2E0,1E0],"tree_param":{"num_deleted":"0","num_feature":"4","num_nodes":"101","size_leaf_vector":"1"}},{"base_weights":[3.0548107E-2,-1.4293119E0,9.085888E-2,-2.108067E0,2.7531664E0,6.38517E-1,-1.10189356E-1,2.1181652E-1,-2.911679E0,5.162578E0,-2.1344075E0,2.8788954E-1,2.816645E0,-7.161566E0,-7.010576E-2,-8.2776576E-1,3.1505194E0,-1.9149157E0,-4.8568816E0,8.699115E0,-1.4328723E0,-1.3949376E-1,-7.30656E-1,2.371372E0,-9.248316E-2,5.2893085E0,-1.5631938E0,-7.8031273E0,-3.0436134E-1,5.6226106E0,-1.061597E-1,-2.8723335E0,1.5040354E0,-5.112785E-1,-5.5689335E0,-6.349966E0,-1.3901705E0,1.0535141E1,-7.215214E-2,-5.620549E-1,-1.664114E-2,-4.191426E-2,4.237137E0,-2.379983E0,3.614413E-1,1.3607162E1,3.4677176E0,-5.6294565E0,1.4603957E0,-3.5586934E0,-2.8914146E0,1.334321E1,-1.7483244E0,-4.712457E-1,1.2772714E-1,-3.1844252E-1,-1.7327902E0,1.2688249E0,8.820391E-2,-5.242431E-1,1.4174284E0,-5.9554654E-1,-1.843427E0,-2.1119728E0,2.8940192E-1,2.5364506E-1,-7.360587E-1,3.6998715E0,5.0161314E-1,6.8587786E-1,-7.9245764E-1,2.711845E-1,1.9529885E0,-3.314973E-1,-2.5669832E0,2.4013059E-1,-3.674089E-1,4.679822E0,1.326862E0,-8.004071E-1,2.2289336E0,-9.413328E-1,-3.1353886E0,3.6904526E0,-1.9907628E-1,-1.3669621E0,-8.4772974E-2,4.4826236E0,1.0421615E0,-8.5338765E-1,5.599772E-1,-1.239281E0,-7.310171E-2,1.1809695E0,-9.952116E-3],"categories":[],"categories_nodes":[],"categories_segments":[],"categories_sizes":[],"default_left":[0,0,0,0,0,0,0,0,0,0,0,0,0,0,0,0,0,0,0,0,0,0,0,0,0,0,0,0,0,0,0,0,0,0,0,0,0,0,0,0,0,0,0,0,0,0,0,0,0,0,0,0,0,0,0,0,0,0,0,0,0,0,0,0,0,0,0,0,0,0,0,0,0,0,0,0,0,0,0,0,0,0,0,0,0,0,0,0,0,0,0,0,0,0,0],"id":11,"left_children":[1,3,5,7,9,11,13,15,17,19,21,23,25,27,29,31,-1,33,35,37,39,-1,-1,41,43,45,47,49,-1,51,53,55,57,59,61,63,65,67,-1,-1,-1,69,71,73,75,77,79,81,83,85,-1,87,89,91,93,-1,-1,-1,-1,-1,-1,-1,-1,-1,-1,-1,-1,-1,-1,-1,-1,-1,-1,-1,-1,-1,-1,-1,-1,-1,-1,-1,-1,-1,-1,-1,-1,-1,-1,-1,-1,-1,-1,-1,-1],"loss_changes":[1.9972852E2,2.6130298E2,2.3988057E2,1.4603107E2,1.6410934E2,4.4596033E2,4.5003326E2,2.3333444E2,1.03156006E2,2.223902E2,1.3809624E0,4.0043176E2,8.8548755E2,2.757666E1,3.2611523E2,9.96706E1,0E0,2.0230934E2,8.951828E1,1.0101404E2,2.3238497E0,0E0,0E0,3.5138232E2,4.4527493E2,7.407042E2,3.770625E2,2.8006744E1,0E0,5.924087E2,1.3471837E2,5.1707726E1,3.1734219E1,2.0243991E2,1.0501495E1,7.239807E1,1.8715527E1,5.9047546E1,0E0,0E0,0E0,2.1787132E2,3.2744855E2,5.4968066E2,2.5025737E2,9.568176E1,1.0894705E3,1.2339447E2,4.2263727E2,1.1788677E1,0E0,2.6991943E1,2.908796E1,5.120278E2,5.896877E2,0E0,0E0,0E0,0E0,0E0,0E0,0E0,0E0,0E0,0E0,0E0,0E0,0E0,0E0,0E0,0E0,0E0,0E0,0E0,0E0,0E0,0E0,0E0,0E0,0E0,0E0,0E0,0E0,0E0,0E0,0E0,0E0,0E0,0E0,0E0,0E0,0E0,0E0,0E0,0E0],"parents":[2147483647,0,0,1,1,2,2,3,3,4,4,5,5,6,6,7,7,8,8,9,9,10,10,11,11,12,12,13,13,14,14,15,15,17,17,18,18,19,19,20,20,23,23,24,24,25,25,26,26,27,27,29,29,30,30,31,31,32,32,33,33,34,34,35,35,36,36,37,37,41,41,42,42,43,43,44,44,45,45,46,46,47,47,48,48,49,49,51,51,52,52,53,53,54,54],"right_children":[2,4,6,8,10,12,14,16,18,20,22,24,26,28,30,32,-1,34,36,38,40,-1,-1,42,44,46,48,50,-1,52,54,56,58,60,62,64,66,68,-1,-1,-1,70,72,74,76,78,80,82,84,86,-1,88,90,92,94,-1,-1,-1,-1,-1,-1,-1,-1,-1,-1,-1,-1,-1,-1,-1,-1,-1,-1,-1,-1,-1,-1,-1,-1,-1,-1,-1,-1,-1,-1,-1,-1,-1,-1,-1,-1,-1,-1,-1,-1],"split_conditions":[2.4224226E1,2.8999999E0,1.6517596E2,1.1304229E1,2.0774214E1,1.4951562E2,1.665838E2,1.1159999E1,5E-1,1.4513159E1,-5.2224164E0,-8.557499E-1,1.3140084E1,1.7148247E1,1.675561E2,1E-1,3.1505194E0,1.8752165E1,1.764E1,1.2594249E1,4.3E0,-1.3949376E-1,-7.30656E-1,-3.1786664E0,2.3213332E0,1.1681987E1,1.6529667E1,8E-1,-3.0436134E-1,2E-1,3.967167E0,4.666681E-3,3.171667E-1,1.6433495E1,1.1966954E1,1.4073418E1,1.0000001E0,1.9559633E1,-7.215214E-2,-5.620549E-1,-1.664114E-2,6.603749E1,5.9005993E1,1.2480149E2,1.764E1,1.79425E0,1.6299694E1,1.6808569E1,1.6627583E1,7.3942494E0,-2.8914146E0,1.4423417E1,3.6999998E0,1.8798141E2,4.390083E0,-3.1844252E-1,-1.7327902E0,1.2688249E0,8.820391E-2,-5.242431E-1,1.4174284E0,-5.9554654E-1,-1.843427E0,-2.1119728E0,2.8940192E-1,2.5364506E-1,-7.360587E-1,3.6998715E0,5.0161314E-1,6.8587786E-1,-7.9245764E-1,2.711845E-1,1.9529885E0,-3.314973E-1,-2.5669832E0,2.4013059E-1,-3.674089E-1,4.679822E0,1.326862E0,-8.004071E-1,2.2289336E0,-9.413328E-1,-3.1353886E0,3.6904526E0,-1.9907628E-1,-1.3669621E0,-8.4772974E-2,4.4826236E0,1.0421615E0,-8.5338765E-1,5.599772E-1,-1.239281E0,-7.310171E-2,1.1809695E0,-9.952116E-3],"split_indices":[3,1,3,2,2,3,3,2,1,3,0,0,0,2,3,1,0,3,2,0,1,0,0,0,0,2,0,1,0,1,0,0,0,3,2,0,1,2,0,0,0,3,3,3,2,0,2,2,0,0,0,0,1,3,0,0,0,0,0,0,0,0,0,0,0,0,0,0,0,0,0,0,0,0,0,0,0,0,0,0,0,0,0,0,0,0,0,0,0,0,0,0,0,0,0],"split_type":[0,0,0,0,0,0,0,0,0,0,0,0,0,0,0,0,0,0,0,0,0,0,0,0,0,0,0,0,0,0,0,0,0,0,0,0,0,0,0,0,0,0,0,0,0,0,0,0,0,0,0,0,0,0,0,0,0,0,0,0,0,0,0,0,0,0,0,0,0,0,0,0,0,0,0,0,0,0,0,0,0,0,0,0,0,0,0,0,0,0,0,0,0,0,0],"sum_hessian":[2.266E3,8.9E1,2.177E3,7.7E1,1.2E1,5.84E2,1.593E3,2E1,5.7E1,8E0,4E0,5.04E2,8E1,8E0,1.585E3,1.9E1,1E0,3.9E1,1.8E1,5E0,3E0,1E0,3E0,7.7E1,4.27E2,5.1E1,2.9E1,7E0,1E0,9E0,1.576E3,1E1,9E0,2.9E1,1E1,1.2E1,6E0,4E0,1E0,2E0,1E0,3.4E1,4.3E1,7E1,3.57E2,8E0,4.3E1,1.2E1,1.7E1,3E0,4E0,4E0,5E0,6.15E2,9.61E2,7E0,3E0,2E0,7E0,2.4E1,5E0,2E0,8E0,1.1E1,1E0,2E0,4E0,3E0,1E0,1.8E1,1.6E1,1.8E1,2.5E1,5.9E1,1.1E1,2.8E2,7.7E1,6E0,2E0,1.7E1,2.6E1,9E0,3E0,2E0,1.5E1,2E0,1E0,3E0,1E0,4E0,1E0,3.5E1,5.8E2,3.8E1,9.23E2],"tree_param":{"num_deleted":"0","num_feature":"4","num_nodes":"95","size_leaf_vector":"1"}},{"base_weights":[2.4767034E-2,-6.398537E-3,1.8530422E0,2.2954462E0,-2.6167367E-2,1.2057227E0,4.129775E0,3.5661385E0,-3.9233208E-1,-1.0162635E0,1.5332033E-2,7.031463E-1,4.422327E0,2.066632E0,1.0966218E0,1.1876256E0,2.1402702E0,7.680257E-1,-1.1031718E0,-1.534828E0,2.1334078E0,3.963993E-2,-2.308979E0,1.2103593E0,-1.9487412E0,2.627225E0,-1.2874409E0,-5.440905E-1,2.2775946E0,2.010237E0,-1.127676E0,1.6687641E0,-2.0669024E-1,-1.6825051E0,-1.2347945E0,4.00832E0,-1.6681154E0,4.2968258E-1,-1.3475303E-1,-6.229371E0,-4.4949627E-1,3.1889017E0,-8.5463715E-1,1.0443993E-1,8.4141123E-1,6.529648E-1,1.5185452E-1,-7.604794E-1,2.5302517E-1,9.674302E-2,8.56144E-1,-2.2410338E-1,-1.0956327E0,2.0332808E0,-3.4430525E-1,-1.18569665E-1,-5.662585E-1,9.754669E-2,2.1260679E0,-9.553509E-1,-1.7846474E-2,-2.0502248E0,-3.9016545E-1,1.4548974E0,-3.3782512E-1,-1.8387223E-2,1.224267E0,-5.673157E-1,1.0727707E0],"categories":[],"categories_nodes":[],"categories_segments":[],"categories_sizes":[],"default_left":[0,0,0,0,0,0,0,0,0,0,0,0,0,0,0,0,0,0,0,0,0,0,0,0,0,0,0,0,0,0,0,0,0,0,0,0,0,0,0,0,0,0,0,0,0,0,0,0,0,0,0,0,0,0,0,0,0,0,0,0,0,0,0,0,0,0,0,0,0],"id":12,"left_children":[1,3,5,7,9,11,13,15,17,19,21,23,25,-1,27,29,-1,31,-1,33,35,37,39,41,-1,-1,-1,-1,43,45,47,49,-1,-1,51,53,55,57,59,61,63,65,67,-1,-1,-1,-1,-1,-1,-1,-1,-1,-1,-1,-1,-1,-1,-1,-1,-1,-1,-1,-1,-1,-1,-1,-1,-1,-1],"loss_changes":[1.2918379E2,1.01535706E2,5.1024033E1,6.629056E1,9.090311E1,4.7004734E1,5.9393326E1,1.018551E2,2.950589E1,1.486388E2,1.2009564E2,1.1010151E2,1.886825E2,0E0,2.1315395E1,1.9408237E1,0E0,9.023942E0,0E0,8.71837E1,9.934412E1,1.4310542E2,1.5757776E2,1.1303879E2,0E0,0E0,0E0,0E0,3.0917377E0,6.492691E-1,1.0459497E1,5.461379E0,0E0,0E0,8.334798E1,1.3628444E2,6.5042305E-1,4.5000336E2,3.335599E2,1.1975525E1,6.2826584E1,4.0837982E1,7.1048515E1,0E0,0E0,0E0,0E0,0E0,0E0,0E0,0E0,0E0,0E0,0E0,0E0,0E0,0E0,0E0,0E0,0E0,0E0,0E0,0E0,0E0,0E0,0E0,0E0,0E0,0E0],"parents":[2147483647,0,0,1,1,2,2,3,3,4,4,5,5,6,6,7,7,8,8,9,9,10,10,11,11,12,12,14,14,15,15,17,17,19,19,20,20,21,21,22,22,23,23,28,28,29,29,30,30,31,31,34,34,35,35,36,36,37,37,38,38,39,39,40,40,41,41,42,42],"right_children":[2,4,6,8,10,12,14,16,18,20,22,24,26,-1,28,30,-1,32,-1,34,36,38,40,42,-1,-1,-1,-1,44,46,48,50,-1,-1,52,54,56,58,60,62,64,66,68,-1,-1,-1,-1,-1,-1,-1,-1,-1,-1,-1,-1,-1,-1,-1,-1,-1,-1,-1,-1,-1,-1,-1,-1,-1,-1],"split_conditions":[2.2173418E1,7.653705E0,8.000001E-1,6E-1,2.4224226E1,1.7208603E1,1.4000001E0,5.7341677E-1,1.583877E2,2.8999999E0,1.58E1,1.6323528E1,2.3406752E1,2.066632E0,2.262967E1,-7.7658343E-1,2.1402702E0,1.5481751E1,-1.1031718E0,-7.159916E0,2.0774214E1,1.848874E2,6.763E0,1.675561E2,-1.9487412E0,2.627225E0,-1.2874409E0,-5.440905E-1,1.2413476E1,2.8806052E2,-6.911667E-1,7.5046678E0,-2.0669024E-1,-1.6825051E0,1.7E0,1.4513159E1,-5.2224164E0,1.8365208E2,1.8861308E2,1.81409E2,7.7754993E0,2.262967E1,2.6963458E2,1.0443993E-1,8.4141123E-1,6.529648E-1,1.5185452E-1,-7.604794E-1,2.5302517E-1,9.674302E-2,8.56144E-1,-2.2410338E-1,-1.0956327E0,2.0332808E0,-3.4430525E-1,-1.18569665E-1,-5.662585E-1,9.754669E-2,2.1260679E0,-9.553509E-1,-1.7846474E-2,-2.0502248E0,-3.9016545E-1,1.4548974E0,-3.3782512E-1,-1.8387223E-2,1.224267E0,-5.673157E-1,1.0727707E0],"split_indices":[0,2,1,1,3,2,1,0,3,1,1,2,0,0,0,0,0,0,0,0,2,3,0,3,0,0,0,0,2,3,0,0,0,0,1,3,0,3,3,3,0,0,3,0,0,0,0,0,0,0,0,0,0,0,0,0,0,0,0,0,0,0,0,0,0,0,0,0,0],"split_type":[0,0,0,0,0,0,0,0,0,0,0,0,0,0,0,0,0,0,0,0,0,0,0,0,0,0,0,0,0,0,0,0,0,0,0,0,0,0,0,0,0,0,0,0,0,0,0,0,0,0,0,0,0,0,0,0,0,0,0,0,0,0,0,0,0,0,0,0,0],"sum_hessian":[2.266E3,2.229E3,3.7E1,1.8E1,2.211E3,3E1,7E0,1.2E1,6E0,8.8E1,2.123E3,2.7E1,3E0,3E0,4E0,8E0,4E0,5E0,1E0,7.6E1,1.2E1,2.102E3,2.1E1,2.6E1,1E0,2E0,1E0,1E0,3E0,6E0,2E0,3E0,2E0,4E0,7.2E1,8E0,4E0,6.49E2,1.453E3,6E0,1.5E1,1.3E1,1.3E1,1E0,2E0,5E0,1E0,1E0,1E0,2E0,1E0,6.1E1,1.1E1,5E0,3E0,1E0,3E0,6.4E2,9E0,3.4E1,1.419E3,5E0,1E0,1E0,1.4E1,3E0,1E1,1.1E1,2E0],"tree_param":{"num_deleted":"0","num_feature":"4","num_nodes":"69","size_leaf_vector":"1"}},{"base_weights":[1.8916514E-2,1.4994478E-1,-2.7400818E-1,7.1553275E-2,2.3036976E0,1.8100451E0,-3.601795E-1,1.3821849E-1,-2.1572976E0,1.7135231E0,3.5886643E0,3.4201322E0,-2.642689E0,-4.9241588E-1,9.7675997E-1,1.0634792E-1,4.780688E0,6.995946E0,-3.5101736E0,3.0675206E0,-4.4154186E0,1.9514437E0,3.4745347E0,-1.5441517E0,1.1485868E0,-2.2970517E0,-4.4470704E-1,5.343515E0,-9.0796396E-2,1.5924072E-1,-2.6063175E0,8.609472E-2,1.1801054E1,9.748031E0,-1.0146718E0,-1.4544591E0,-4.603195E0,4.968501E0,-5.697264E-1,-5.5104437E0,-2.3545584E-2,-1.0178729E-1,6.4170756E0,4.214414E-2,6.7018723E-1,3.635862E0,-4.9801803E-1,-2.864175E0,1.1615318E1,-5.190163E0,7.2253007E-1,9.5054634E-2,-9.407639E-2,-9.72288E-1,2.1793542E0,7.4278295E-1,-1.1777053E0,5.2889113E0,1.1944809E0,3.8458273E-1,3.4632204E0,-9.536813E-1,1.2247773E0,-2.4793625E-3,-1.643408E0,-1.3295396E-1,1.9198539E0,3.6997032E-1,-1.1340601E0,-2.2457123E0,-8.484431E-1,1.5271397E-1,-1.6330948E-1,4.8094395E-1,-7.9266703E-1,2.1947289E0,2.885462E-1,-1.1278611E-1,1.3175097E-1,1.4562005E0,-7.33667E-1,-1.1394027E0,-1.2741324E-1,1.7040831E0,-1.7127362E0,4.7515E0,1.3465424E0,-2.7823162E-1,-2.0129297E0,1.2708083E0,-1.7001877E-2],"categories":[],"categories_nodes":[],"categories_segments":[],"categories_sizes":[],"default_left":[0,0,0,0,0,0,0,0,0,0,0,0,0,0,0,0,0,0,0,0,0,0,0,0,0,0,0,0,0,0,0,0,0,0,0,0,0,0,0,0,0,0,0,0,0,0,0,0,0,0,0,0,0,0,0,0,0,0,0,0,0,0,0,0,0,0,0,0,0,0,0,0,0,0,0,0,0,0,0,0,0,0,0,0,0,0,0,0,0,0,0],"id":13,"left_children":[1,3,5,7,9,11,13,15,17,19,-1,21,23,25,27,29,31,33,35,37,39,41,-1,-1,43,-1,45,47,49,51,53,55,57,59,-1,61,63,65,67,69,71,73,75,77,-1,79,81,83,85,87,89,-1,-1,-1,-1,-1,-1,-1,-1,-1,-1,-1,-1,-1,-1,-1,-1,-1,-1,-1,-1,-1,-1,-1,-1,-1,-1,-1,-1,-1,-1,-1,-1,-1,-1,-1,-1,-1,-1,-1,-1],"loss_changes":[8.705175E1,2.6440106E2,1.26541504E2,2.2511008E2,2.9301398E2,2.0977844E2,1.1963879E2,2.1699011E2,5.6941797E2,4.5336865E2,0E0,2.2912413E2,8.187346E1,2.0646408E2,2.8485236E2,2.1004001E2,3.285616E2,2.0434003E2,8.093552E1,3.0706146E2,4.7962357E1,1.7486368E2,0E0,0E0,4.7094526E0,0E0,1.347272E2,6.5099255E2,2.1112253E2,1.0696333E2,1.9894856E2,7.6832565E1,1.12112915E2,6.122818E1,0E0,1.5620616E2,1.0044946E2,2.2741736E2,9.7275604E1,2.1215332E1,1.1092598E0,6.487372E1,2.2378952E1,6.6309434E-1,0E0,7.1134865E1,1.445026E2,1.7828041E2,1.3958746E2,3.912062E1,1.2070009E2,0E0,0E0,0E0,0E0,0E0,0E0,0E0,0E0,0E0,0E0,0E0,0E0,0E0,0E0,0E0,0E0,0E0,0E0,0E0,0E0,0E0,0E0,0E0,0E0,0E0,0E0,0E0,0E0,0E0,0E0,0E0,0E0,0E0,0E0,0E0,0E0,0E0,0E0,0E0,0E0],"parents":[2147483647,0,0,1,1,2,2,3,3,4,4,5,5,6,6,7,7,8,8,9,9,11,11,12,12,13,13,14,14,15,15,16,16,17,17,18,18,19,19,20,20,21,21,24,24,26,26,27,27,28,28,29,29,30,30,31,31,32,32,33,33,35,35,36,36,37,37,38,38,39,39,40,40,41,41,42,42,43,43,45,45,46,46,47,47,48,48,49,49,50,50],"right_children":[2,4,6,8,10,12,14,16,18,20,-1,22,24,26,28,30,32,34,36,38,40,42,-1,-1,44,-1,46,48,50,52,54,56,58,60,-1,62,64,66,68,70,72,74,76,78,-1,80,82,84,86,88,90,-1,-1,-1,-1,-1,-1,-1,-1,-1,-1,-1,-1,-1,-1,-1,-1,-1,-1,-1,-1,-1,-1,-1,-1,-1,-1,-1,-1,-1,-1,-1,-1,-1,-1,-1,-1,-1,-1,-1,-1],"split_conditions":[2.5781625E2,2.5293391E2,1.000256E1,2.4972174E2,2.7534704E1,8.210917E0,3.8000002E0,2.4901503E2,1.2261157E1,2.291026E1,3.5886643E0,1.1000001E0,1.5058833E1,1.0239453E1,4.9999995E0,2.468986E2,1.5328561E1,3E-1,6.6713333E0,4E-1,2.6161375E1,5.7341677E-1,3.4745347E0,-1.5441517E0,2.0183834E1,-2.2970517E0,1.0464797E1,3.0505E0,5.9E0,2.8E0,1.3E1,3E-1,1.665754E1,-2.9536667E0,-1.0146718E0,4.49425E0,1.3608762E1,2.063E0,1.4140083E1,2.5474487E2,1.538E0,-3.3453338E0,3.1990564E2,1.8542168E1,6.7018723E-1,1.2696334E1,1.0703569E1,3.9E0,9.792167E0,2.6770734E2,1.2984975E1,9.5054634E-2,-9.407639E-2,-9.72288E-1,2.1793542E0,7.4278295E-1,-1.1777053E0,5.2889113E0,1.1944809E0,3.8458273E-1,3.4632204E0,-9.536813E-1,1.2247773E0,-2.4793625E-3,-1.643408E0,-1.3295396E-1,1.9198539E0,3.6997032E-1,-1.1340601E0,-2.2457123E0,-8.484431E-1,1.5271397E-1,-1.6330948E-1,4.8094395E-1,-7.9266703E-1,2.1947289E0,2.885462E-1,-1.1278611E-1,1.3175097E-1,1.4562005E0,-7.33667E-1,-1.1394027E0,-1.2741324E-1,1.7040831E0,-1.7127362E0,4.7515E0,1.3465424E0,-2.7823162E-1,-2.0129297E0,1.2708083E0,-1.7001877E-2],"split_indices":[3,3,2,3,2,0,1,3,2,2,0,1,0,2,1,3,2,1,0,1,2,0,0,0,0,0,2,0,1,1,1,1,2,0,0,0,2,0,0,3,0,0,3,0,0,0,2,1,0,3,2,0,0,0,0,0,0,0,0,0,0,0,0,0,0,0,0,0,0,0,0,0,0,0,0,0,0,0,0,0,0,0,0,0,0,0,0,0,0,0,0],"split_type":[0,0,0,0,0,0,0,0,0,0,0,0,0,0,0,0,0,0,0,0,0,0,0,0,0,0,0,0,0,0,0,0,0,0,0,0,0,0,0,0,0,0,0,0,0,0,0,0,0,0,0,0,0,0,0,0,0,0,0,0,0,0,0,0,0,0,0,0,0,0,0,0,0,0,0,0,0,0,0,0,0,0,0,0,0,0,0,0,0,0,0],"sum_hessian":[2.266E3,1.566E3,7E2,1.512E3,5.4E1,2.7E1,6.73E2,1.469E3,4.3E1,5.2E1,2E0,2E1,7E0,6.13E2,6E1,1.46E3,9E0,5E0,3.8E1,4.3E1,9E0,1.8E1,2E0,4E0,3E0,3E0,6.1E2,1.1E1,4.9E1,1.433E3,2.7E1,6E0,3E0,4E0,1E0,1.4E1,2.4E1,2.8E1,1.5E1,7E0,2E0,1.3E1,5E0,2E0,1E0,7E0,6.03E2,5E0,6E0,6E0,4.3E1,1.075E3,3.58E2,2.6E1,1E0,4E0,2E0,1E0,2E0,1E0,3E0,1.1E1,3E0,4E0,2E1,6E0,2.2E1,1E1,5E0,3E0,4E0,1E0,1E0,8E0,5E0,4E0,1E0,1E0,1E0,6E0,1E0,1.2E1,5.91E2,1E0,4E0,3E0,3E0,2E0,4E0,7E0,3.6E1],"tree_param":{"num_deleted":"0","num_feature":"4","num_nodes":"91","size_leaf_vector":"1"}},{"base_weights":[2.083892E-2,5.466703E-1,-5.2027695E-2,-8.2161087E-1,1.0245707E0,-2.048158E0,3.5901815E-3,-1.9443741E0,9.1022336E-1,1.1632966E0,-1.4271374E0,-7.042355E0,-1.0265073E0,-6.673403E-1,1.2007745E-1,1.9339816E-1,-3.2975416E0,-1.6646758E-2,3.8256218E0,9.9161947E-1,5.7795453E0,-8.379975E0,5.487906E-1,2.0567687E-1,-4.5348353E0,-2.0529583E0,1.2505567E0,5.7459035E0,5.4739127E-3,2.364067E0,-2.239945E0,-8.462262E-2,-4.4178324E0,5.269201E0,-1.072984E0,3.3470085E0,7.4432737E-1,5.977979E-1,2.7748666E0,2.4797632E-1,6.467273E0,-3.0740943E0,-5.557915E-1,-1.3874322E0,4.837717E-1,-5.676544E0,-8.322816E-1,-5.615575E-1,-4.7032638E0,6.225461E0,9.151191E-1,1.4124714E0,1.7144781E1,4.3984705E-1,-6.3417536E-1,-4.4930157E-1,1.5564517E0,-1.1588131E0,-3.6734456E-1,3.145246E-1,-1.2023833E0,-1.0287365E0,-1.8459915E0,2.1570907E0,6.696199E-1,1.328315E0,-5.790472E-1,-9.197863E-1,6.3587236E-1,4.8686445E-1,-1.9804515E-1,2.138023E0,5.8339372E-2,2.2120907E0,2.9031974E-1,1.2680665E0,-9.220438E-2,-7.1452403E-1,-2.0780957E0,-3.3898774E-1,9.112645E-3,-2.8558403E-1,1.0078356E0,-9.1044384E-1,-2.9905636E0,5.3244952E-2,1.5255587E0,-3.1616724E-1,2.3715305E0,6.2040358E0,-1.6706882E0,9.098132E-2,1.7363454E0,-4.0421662E-1,7.620864E-2],"categories":[],"categories_nodes":[],"categories_segments":[],"categories_sizes":[],"default_left":[0,0,0,0,0,0,0,0,0,0,0,0,0,0,0,0,0,0,0,0,0,0,0,0,0,0,0,0,0,0,0,0,0,0,0,0,0,0,0,0,0,0,0,0,0,0,0,0,0,0,0,0,0,0,0,0,0,0,0,0,0,0,0,0,0,0,0,0,0,0,0,0,0,0,0,0,0,0,0,0,0,0,0,0,0,0,0,0,0,0,0,0,0,0,0],"id":14,"left_children":[1,3,5,7,9,11,13,15,17,19,-1,21,23,25,27,29,31,33,35,37,39,41,-1,43,45,47,49,51,53,55,57,59,61,63,65,-1,67,69,71,-1,73,-1,-1,-1,75,77,79,81,83,-1,85,87,89,91,93,-1,-1,-1,-1,-1,-1,-1,-1,-1,-1,-1,-1,-1,-1,-1,-1,-1,-1,-1,-1,-1,-1,-1,-1,-1,-1,-1,-1,-1,-1,-1,-1,-1,-1,-1,-1,-1,-1,-1,-1],"loss_changes":[8.68898E1,1.8131877E2,2.2116025E2,1.4176947E2,1.6995845E2,2.682965E2,1.516224E2,1.2791937E2,7.842735E1,1.5356223E2,0E0,1.2213165E2,1.997864E2,7.652619E2,1.065723E3,1.0037106E2,9.681003E1,1.3407742E2,1.4982013E2,1.3528604E2,1.849826E1,7.850867E1,0E0,4.9253654E1,4.600241E1,6.574544E2,7.7251465E2,1.6058602E3,4.5066803E2,1.16829735E2,1.0100906E1,3.9764164E1,1.3217163E1,7.289337E0,1.02847244E2,0E0,3.793899E1,2.0868115E2,3.9164972E2,0E0,2.2771744E1,0E0,0E0,0E0,1.0198172E2,2.0581177E1,1.0614974E0,1.6851578E2,4.968391E2,0E0,3.6821725E2,4.086605E2,8.3787354E2,7.038153E2,4.159045E2,0E0,0E0,0E0,0E0,0E0,0E0,0E0,0E0,0E0,0E0,0E0,0E0,0E0,0E0,0E0,0E0,0E0,0E0,0E0,0E0,0E0,0E0,0E0,0E0,0E0,0E0,0E0,0E0,0E0,0E0,0E0,0E0,0E0,0E0,0E0,0E0,0E0,0E0,0E0,0E0],"parents":[2147483647,0,0,1,1,2,2,3,3,4,4,5,5,6,6,7,7,8,8,9,9,11,11,12,12,13,13,14,14,15,15,16,16,17,17,18,18,19,19,20,20,21,21,23,23,24,24,25,25,26,26,27,27,28,28,29,29,30,30,31,31,32,32,33,33,34,34,36,36,37,37,38,38,40,40,44,44,45,45,46,46,47,47,48,48,50,50,51,51,52,52,53,53,54,54],"right_children":[2,4,6,8,10,12,14,16,18,20,-1,22,24,26,28,30,32,34,36,38,40,42,-1,44,46,48,50,52,54,56,58,60,62,64,66,-1,68,70,72,-1,74,-1,-1,-1,76,78,80,82,84,-1,86,88,90,92,94,-1,-1,-1,-1,-1,-1,-1,-1,-1,-1,-1,-1,-1,-1,-1,-1,-1,-1,-1,-1,-1,-1,-1,-1,-1,-1,-1,-1,-1,-1,-1,-1,-1,-1,-1,-1,-1,-1,-1,-1],"split_conditions":[-1.7265834E0,-6.130749E0,-1.1099168E0,2.9821005E2,2.59225E1,1.1681987E1,9.195254E1,4.1682133E1,1.3513193E1,3.4955133E2,-1.4271374E0,2.971422E2,1.0000001E0,1.1558834E1,1.0514392E2,1E-1,-8.934917E0,3.114749E2,1.3722565E1,1.1000001E0,6.9527545E0,3E-1,5.487906E-1,1.3412843E1,4.6E0,7.0980064E1,1.1708833E1,1.5629971E1,1.1348416E1,1.4513159E1,1.6171976E1,2.8806052E2,1.6055353E1,-1.054325E1,1.0308831E1,3.3470085E0,-8.934917E0,1E-1,1.8E0,2.4797632E-1,1.3000002E0,-3.0740943E0,-5.557915E-1,-1.3874322E0,1.6017664E2,4.7484066E1,2.2206486E1,6.404718E1,6.763E0,6.225461E0,8.103966E1,1.02640015E2,1.4510918E1,1.0942168E1,1.6442167E1,-4.4930157E-1,1.5564517E0,-1.1588131E0,-3.6734456E-1,3.145246E-1,-1.2023833E0,-1.0287365E0,-1.8459915E0,2.1570907E0,6.696199E-1,1.328315E0,-5.790472E-1,-9.197863E-1,6.3587236E-1,4.8686445E-1,-1.9804515E-1,2.138023E0,5.8339372E-2,2.2120907E0,2.9031974E-1,1.2680665E0,-9.220438E-2,-7.1452403E-1,-2.0780957E0,-3.3898774E-1,9.112645E-3,-2.8558403E-1,1.0078356E0,-9.1044384E-1,-2.9905636E0,5.3244952E-2,1.5255587E0,-3.1616724E-1,2.3715305E0,6.2040358E0,-1.6706882E0,9.098132E-2,1.7363454E0,-4.0421662E-1,7.620864E-2],"split_indices":[0,0,0,3,2,2,3,3,2,3,0,3,1,0,3,1,0,3,2,1,2,1,0,3,1,3,0,2,0,3,2,3,2,0,2,0,0,1,1,0,1,0,0,0,3,3,2,3,0,0,3,3,0,0,0,0,0,0,0,0,0,0,0,0,0,0,0,0,0,0,0,0,0,0,0,0,0,0,0,0,0,0,0,0,0,0,0,0,0,0,0,0,0,0,0],"split_type":[0,0,0,0,0,0,0,0,0,0,0,0,0,0,0,0,0,0,0,0,0,0,0,0,0,0,0,0,0,0,0,0,0,0,0,0,0,0,0,0,0,0,0,0,0,0,0,0,0,0,0,0,0,0,0,0,0,0,0,0,0,0,0,0,0,0,0,0,0,0,0,0,0,0,0,0,0,0,0,0,0,0,0,0,0,0,0,0,0,0,0,0,0,0,0],"sum_hessian":[2.266E3,2.75E2,1.991E3,7.1E1,2.04E2,5.3E1,1.938E3,4.3E1,2.8E1,2E2,4E0,8E0,4.5E1,2.86E2,1.652E3,1.7E1,2.6E1,2.2E1,6E0,1.94E2,6E0,7E0,1E0,3.4E1,1.1E1,1.66E2,1.2E2,3.2E1,1.62E3,9E0,8E0,7E0,1.9E1,3E0,1.9E1,1E0,5E0,1.6E2,3.4E1,1E0,5E0,5E0,2E0,1E0,3.3E1,8E0,3E0,1.07E2,5.9E1,1E0,1.19E2,2.4E1,8E0,9.65E2,6.55E2,4E0,5E0,2E0,6E0,6E0,1E0,1.4E1,5E0,1E0,2E0,2E0,1.7E1,1E0,4E0,8.8E1,7.2E1,1.2E1,2.2E1,4E0,1E0,5E0,2.8E1,3E0,5E0,2E0,1E0,9.8E1,9E0,4.6E1,1.3E1,1.02E2,1.7E1,1.8E1,6E0,7E0,1E0,9.42E2,2.3E1,3.63E2,2.92E2],"tree_param":{"num_deleted":"0","num_feature":"4","num_nodes":"95","size_leaf_vector":"1"}},{"base_weights":[2.0129733E-2,1.8378524E-1,-1.7870581E-1,-4.9099628E-2,3.3598168E0,-4.6701674E0,-1.20832585E-1,2.9601052E-1,-5.2493984E-1,-3.6150187E-1,4.586523E0,2.469899E0,-6.192898E0,-5.4785913E-1,1.8058991E-1,1.7134726E-1,3.1615984E0,-2.6056113E0,-1.8186538E-1,-2.138638E0,3.481972E0,7.644557E0,3.850377E0,-4.147399E-1,1.5261945E0,-2.9818203E0,-2.6321247E0,-8.7252384E-1,2.0403917E0,3.4153858E-1,-1.7442232E0,7.291671E-1,-6.385632E-1,4.250131E0,1.7701324E0,-4.2769685E0,2.3675098E0,4.7993022E-1,-1.4536399E0,1.4312234E0,-6.6608267E0,5.133678E0,-2.4017382E-1,-2.9964538E0,-6.692262E-2,3.0797556E-1,-1.4065546E0,-4.5390787E0,3.305276E0,1.8120776E-1,5.6712337E0,-2.6406827E0,1.7470996E0,2.4812083E-1,-2.0512977E0,-5.0740546E-1,2.483445E-1,-1.2329926E0,7.294171E-1,-1.5844347E0,1.4099836E-1,2.4143739E0,-1.3089913E-1,3.0243546E-1,-5.474655E-1,-7.837762E-2,-9.80702E-1,-4.1172698E-1,1.689244E0,-1.291998E-1,-2.5138047E0,8.0525166E-1,5.1137056E0,-7.8175086E-1,7.3536545E-1,-1.6322938E-1,-1.0134317E0,-2.5377765E-1,4.143487E-1,3.1524408E0,-4.6236345E-1,-1.9772332E0,-8.2701504E-1,1.8976096E0,1.640332E-1,-4.0820727E-1,1.21600814E-1,2.390953E0,-9.651168E-1,1.0647135E0,-8.7336135E-1,1.4040946E0,-5.3582672E-2],"categories":[],"categories_nodes":[],"categories_segments":[],"categories_sizes":[],"default_left":[0,0,0,0,0,0,0,0,0,0,0,0,0,0,0,0,0,0,0,0,0,0,0,0,0,0,0,0,0,0,0,0,0,0,0,0,0,0,0,0,0,0,0,0,0,0,0,0,0,0,0,0,0,0,0,0,0,0,0,0,0,0,0,0,0,0,0,0,0,0,0,0,0,0,0,0,0,0,0,0,0,0,0,0,0,0,0,0,0,0,0,0,0],"id":15,"left_children":[1,3,5,7,9,11,13,15,17,19,21,23,25,27,29,31,33,35,37,39,-1,-1,41,-1,-1,-1,43,45,47,49,51,53,55,-1,57,59,61,63,65,67,69,71,73,75,-1,77,79,81,83,85,87,89,91,-1,-1,-1,-1,-1,-1,-1,-1,-1,-1,-1,-1,-1,-1,-1,-1,-1,-1,-1,-1,-1,-1,-1,-1,-1,-1,-1,-1,-1,-1,-1,-1,-1,-1,-1,-1,-1,-1,-1,-1],"loss_changes":[7.380224E1,9.202892E2,2.6560956E2,1.9064745E2,3.8968E2,1.5663693E2,1.3035895E2,2.3987646E2,3.4787286E2,4.92738E2,8.863341E2,3.7282764E1,1.2058316E2,3.538717E2,1.846146E2,2.9231818E2,4.0370828E2,5.836443E2,3.5419263E2,3.324049E2,0E0,0E0,3.3194568E2,0E0,0E0,0E0,5.4753723E0,2.35581E2,4.0614954E2,4.6810074E2,1.485857E2,2.893852E2,4.089596E2,0E0,1.1108791E2,2.5043036E2,2.9019653E2,3.390527E2,3.1084964E2,1.4901784E2,9.275131E1,1.3548158E3,1.0825828E2,3.7776527E0,0E0,1.4605547E2,4.285249E2,1.1086044E1,3.297779E2,1.8509288E2,3.525307E2,7.2286804E1,5.7321117E1,0E0,0E0,0E0,0E0,0E0,0E0,0E0,0E0,0E0,0E0,0E0,0E0,0E0,0E0,0E0,0E0,0E0,0E0,0E0,0E0,0E0,0E0,0E0,0E0,0E0,0E0,0E0,0E0,0E0,0E0,0E0,0E0,0E0,0E0,0E0,0E0,0E0,0E0,0E0,0E0],"parents":[2147483647,0,0,1,1,2,2,3,3,4,4,5,5,6,6,7,7,8,8,9,9,10,10,11,11,12,12,13,13,14,14,15,15,16,16,17,17,18,18,19,19,22,22,26,26,27,27,28,28,29,29,30,30,31,31,32,32,34,34,35,35,36,36,37,37,38,38,39,39,40,40,41,41,42,42,43,43,45,45,46,46,47,47,48,48,49,49,50,50,51,51,52,52],"right_children":[2,4,6,8,10,12,14,16,18,20,22,24,26,28,30,32,34,36,38,40,-1,-1,42,-1,-1,-1,44,46,48,50,52,54,56,-1,58,60,62,64,66,68,70,72,74,76,-1,78,80,82,84,86,88,90,92,-1,-1,-1,-1,-1,-1,-1,-1,-1,-1,-1,-1,-1,-1,-1,-1,-1,-1,-1,-1,-1,-1,-1,-1,-1,-1,-1,-1,-1,-1,-1,-1,-1,-1,-1,-1,-1,-1,-1,-1],"split_conditions":[1.6676977E1,1.6279802E1,1.673516E1,1.3779114E1,9.033118E1,2.3921669E0,4.1400833E0,6.9E0,1.4182355E1,3.3999996E0,1.0514392E2,-5.2224164E0,1.2913001E1,2.7267473E1,3.0820682E2,8.702583E0,7.2999997E0,2.7632553E2,2.4972174E2,2E-1,3.481972E0,7.644557E0,1.1E0,-4.147399E-1,1.5261945E0,-2.9818203E0,3.0533786E2,-7.7658343E-1,-5.224166E-1,2.9821005E2,1.3492167E1,5.7999997E0,1.6829666E1,4.250131E0,3.4359432E1,1.8325499E1,2.8400363E2,2.8999999E0,1.5546833E1,1.6489416E1,-1.5245E0,8E-1,1.6489416E1,2.1589095E2,-6.692262E-2,2.1352005E2,5.2008657E0,1.8798141E2,2.3213332E0,1.7447933E1,1.3650501E1,4.223417E0,3.4955133E2,2.4812083E-1,-2.0512977E0,-5.0740546E-1,2.483445E-1,-1.2329926E0,7.294171E-1,-1.5844347E0,1.4099836E-1,2.4143739E0,-1.3089913E-1,3.0243546E-1,-5.474655E-1,-7.837762E-2,-9.80702E-1,-4.1172698E-1,1.689244E0,-1.291998E-1,-2.5138047E0,8.0525166E-1,5.1137056E0,-7.8175086E-1,7.3536545E-1,-1.6322938E-1,-1.0134317E0,-2.5377765E-1,4.143487E-1,3.1524408E0,-4.6236345E-1,-1.9772332E0,-8.2701504E-1,1.8976096E0,1.640332E-1,-4.0820727E-1,1.21600814E-1,2.390953E0,-9.651168E-1,1.0647135E0,-8.7336135E-1,1.4040946E0,-5.3582672E-2],"split_indices":[2,2,2,2,3,0,0,1,2,1,3,0,0,2,3,0,1,3,3,1,0,0,1,0,0,0,3,0,0,3,0,1,0,0,3,0,3,1,2,2,0,1,2,3,0,3,3,3,0,2,0,0,3,0,0,0,0,0,0,0,0,0,0,0,0,0,0,0,0,0,0,0,0,0,0,0,0,0,0,0,0,0,0,0,0,0,0,0,0,0,0,0,0],"split_type":[0,0,0,0,0,0,0,0,0,0,0,0,0,0,0,0,0,0,0,0,0,0,0,0,0,0,0,0,0,0,0,0,0,0,0,0,0,0,0,0,0,0,0,0,0,0,0,0,0,0,0,0,0,0,0,0,0,0,0,0,0,0,0,0,0,0,0,0,0,0,0,0,0,0,0,0,0,0,0,0,0,0,0,0,0,0,0,0,0,0,0,0,0],"sum_hessian":[2.266E3,1.243E3,1.023E3,1.159E3,8.4E1,1.2E1,1.011E3,6.72E2,4.87E2,2.1E1,6.3E1,2E0,1E1,4.18E2,5.93E2,6.45E2,2.7E1,6.8E1,4.19E2,1.9E1,2E0,1E0,6.2E1,1E0,1E0,4E0,6E0,3.72E2,4.6E1,5.48E2,4.5E1,3.82E2,2.63E2,2E0,2.5E1,5.1E1,1.7E1,2.76E2,1.43E2,1.1E1,8E0,4.7E1,1.5E1,5E0,1E0,1.16E2,2.56E2,7E0,3.9E1,5.33E2,1.5E1,3.6E1,9E0,3.78E2,4E0,1.53E2,1.1E2,2E0,2.3E1,4.2E1,9E0,5E0,1.2E1,2.25E2,5.1E1,8.7E1,5.6E1,7E0,4E0,2E0,6E0,4E1,7E0,8E0,7E0,1E0,4E0,5.6E1,6E1,2E0,2.54E2,2E0,5E0,1.8E1,2.1E1,6.7E1,4.66E2,1.2E1,3E0,1E0,3.5E1,3E0,6E0],"tree_param":{"num_deleted":"0","num_feature":"4","num_nodes":"93","size_leaf_vector":"1"}},{"base_weights":[2.2264265E-2,-4.2620163E-2,4.7184002E-1,4.3097652E-2,-1.2064303E0,2.7433076E0,-5.661957E-2,2.6675877E-1,-2.948837E-1,3.7007449E0,-1.938554E0,7.81425E-1,6.967321E0,1.8601301E0,-6.452487E-1,2.0699298E-1,4.347779E0,-2.4672217E0,-1.4311719E-1,2.1241117E0,4.5755267E0,-3.1091385E0,8.4665805E-1,2.5999625E0,-3.9186177E0,1.2483954E1,-2.6970057E0,-4.198482E0,2.9807127E0,-4.6521306E0,-1.6837908E-1,2.747461E-1,-3.2776308E0,1.0172143E1,-1.6405392E-1,-5.58339E0,-1.2734048E0,1.1297255E0,-3.9743683E-1,-4.4873708E-1,8.388696E0,-8.412904E0,-2.3605144E0,2.397374E0,-2.8956392E0,5.9796324E0,1.1886613E0,-7.460195E0,1.823314E0,-7.541831E-1,1.4235139E1,-1.3162603E0,-3.3222604E-1,2.9510276E0,-6.6627746E0,9.025462E0,-1.3480937E-1,-6.127963E0,2.4142325E0,-3.3476067E-1,1.9337366E0,3.7583403E-2,9.480656E-1,-1.1902134E0,1.5775973E0,-5.7824135E-1,3.7529974E0,-9.730548E-1,4.132666E0,-6.3774556E-1,-2.7788763E0,2.2184763E0,-6.856569E-1,6.41799E-2,1.9189248E0,6.741227E-1,-1.911283E-1,-8.7491065E-1,4.3742368E-1,3.3272817E0,8.6706644E-1,-2.8985603E0,4.2416385E-1,-1.7689751E-2,-1.032732E0,3.984971E-1,2.383521E0,-1.1125891E0,7.851408E-1,-1.564336E0,2.497113E0,1.0257099E0,-8.5892135E-1,-2.7321994E0,-6.684708E-1,1.2045063E0,-2.9284936E-1,2.3916056E0,6.4910445E0,1.4151192E-2,-1.4232455E-1,-1.0584069E-1,1.4338031E0,-2.2506802E0,-2.4387275E-1,4.2061796E0,1.3878963E0,-9.844432E-1,6.5726495E-1,-2.7722826E0,1.8014732E-1,1.5728011E0,-8.2841024E-2,-8.976409E-1,-1.0527282E-2],"categories":[],"categories_nodes":[],"categories_segments":[],"categories_sizes":[],"default_left":[0,0,0,0,0,0,0,0,0,0,0,0,0,0,0,0,0,0,0,0,0,0,0,0,0,0,0,0,0,0,0,0,0,0,0,0,0,0,0,0,0,0,0,0,0,0,0,0,0,0,0,0,0,0,0,0,0,0,0,0,0,0,0,0,0,0,0,0,0,0,0,0,0,0,0,0,0,0,0,0,0,0,0,0,0,0,0,0,0,0,0,0,0,0,0,0,0,0,0,0,0,0,0,0,0,0,0,0,0,0,0,0,0,0,0],"id":16,"left_children":[1,3,5,7,9,11,13,15,17,19,21,23,25,27,29,31,33,35,37,39,-1,41,43,45,47,49,51,53,55,57,59,61,63,65,67,69,71,73,75,77,79,81,83,85,87,89,91,93,95,-1,97,-1,99,101,103,105,107,109,111,113,-1,-1,-1,-1,-1,-1,-1,-1,-1,-1,-1,-1,-1,-1,-1,-1,-1,-1,-1,-1,-1,-1,-1,-1,-1,-1,-1,-1,-1,-1,-1,-1,-1,-1,-1,-1,-1,-1,-1,-1,-1,-1,-1,-1,-1,-1,-1,-1,-1,-1,-1,-1,-1,-1,-1],"loss_changes":[6.614955E1,1.9777486E2,3.4346368E2,1.3969946E2,4.9577573E2,4.4205457E2,2.6408356E2,2.7032288E2,2.4229736E2,2.954143E2,3.9061118E2,3.3498196E2,9.400165E2,3.8591913E2,3.4124277E2,2.5989575E2,4.2212576E2,1.7145654E2,2.234844E2,2.777674E2,0E0,3.136654E2,2.1585855E2,1.2644475E2,2.3729272E2,3.2469116E2,2.652644E1,1.782284E2,8.8634656E2,2.1294095E2,1.7933438E2,4.6409912E2,1.4450858E2,2.2212201E2,4.7394614E2,1.4569781E2,3.3274255E2,5.53299E2,3.658535E2,6.542145E1,4.223581E1,1.3639355E2,1.8655478E2,1.436463E2,5.900621E1,2.5332196E2,1.9956314E2,4.0030975E1,3.4597504E1,0E0,2.9108667E2,0E0,2.3816282E-1,1.9807497E1,2.8277771E1,2.867251E2,2.4137115E2,3.4067767E2,3.1885862E1,1.2571594E2,0E0,0E0,0E0,0E0,0E0,0E0,0E0,0E0,0E0,0E0,0E0,0E0,0E0,0E0,0E0,0E0,0E0,0E0,0E0,0E0,0E0,0E0,0E0,0E0,0E0,0E0,0E0,0E0,0E0,0E0,0E0,0E0,0E0,0E0,0E0,0E0,0E0,0E0,0E0,0E0,0E0,0E0,0E0,0E0,0E0,0E0,0E0,0E0,0E0,0E0,0E0,0E0,0E0,0E0,0E0],"parents":[2147483647,0,0,1,1,2,2,3,3,4,4,5,5,6,6,7,7,8,8,9,9,10,10,11,11,12,12,13,13,14,14,15,15,16,16,17,17,18,18,19,19,21,21,22,22,23,23,24,24,25,25,26,26,27,27,28,28,29,29,30,30,31,31,32,32,33,33,34,34,35,35,36,36,37,37,38,38,39,39,40,40,41,41,42,42,43,43,44,44,45,45,46,46,47,47,48,48,50,50,52,52,53,53,54,54,55,55,56,56,57,57,58,58,59,59],"right_children":[2,4,6,8,10,12,14,16,18,20,22,24,26,28,30,32,34,36,38,40,-1,42,44,46,48,50,52,54,56,58,60,62,64,66,68,70,72,74,76,78,80,82,84,86,88,90,92,94,96,-1,98,-1,100,102,104,106,108,110,112,114,-1,-1,-1,-1,-1,-1,-1,-1,-1,-1,-1,-1,-1,-1,-1,-1,-1,-1,-1,-1,-1,-1,-1,-1,-1,-1,-1,-1,-1,-1,-1,-1,-1,-1,-1,-1,-1,-1,-1,-1,-1,-1,-1,-1,-1,-1,-1,-1,-1,-1,-1,-1,-1,-1,-1],"split_conditions":[4.799999E0,3.1000001E0,5.6000004E0,9.3005E0,8.459629E1,5.3E0,1.5124284E1,9.03175E0,1.0340083E1,1.4877585E1,2.257236E2,5.1999993E0,2.0183987E2,5.969251E0,1.6489416E1,8.702583E0,1.9804628E2,1.422001E2,1.0514392E2,4.3E0,4.5755267E0,3.2000003E0,2.829774E2,1.2480149E2,4.49425E0,-2.6786668E0,5.4999995E0,1.2074766E1,1.3312999E1,9.8E0,1.8888E1,7.829666E0,2.4122686E1,4.1682133E1,2.2104116E1,7.167664E1,1.7274242E2,8.645056E1,1.1348416E1,7.341681E-2,4.1400833E0,2.0958834E1,1.5380846E2,2.2545315E1,1.4877585E1,-2.9536667E0,4.9999995E0,1.848874E2,7.317167E0,-7.541831E-1,1.8227179E2,-1.3162603E0,1.3570615E1,2.6192496E0,1.4654254E1,8.900001E0,1.5615083E1,1.3860915E1,3.49425E0,6.1999993E0,1.9337366E0,3.7583403E-2,9.480656E-1,-1.1902134E0,1.5775973E0,-5.7824135E-1,3.7529974E0,-9.730548E-1,4.132666E0,-6.3774556E-1,-2.7788763E0,2.2184763E0,-6.856569E-1,6.41799E-2,1.9189248E0,6.741227E-1,-1.911283E-1,-8.7491065E-1,4.3742368E-1,3.3272817E0,8.6706644E-1,-2.8985603E0,4.2416385E-1,-1.7689751E-2,-1.032732E0,3.984971E-1,2.383521E0,-1.1125891E0,7.851408E-1,-1.564336E0,2.497113E0,1.0257099E0,-8.5892135E-1,-2.7321994E0,-6.684708E-1,1.2045063E0,-2.9284936E-1,2.3916056E0,6.4910445E0,1.4151192E-2,-1.4232455E-1,-1.0584069E-1,1.4338031E0,-2.2506802E0,-2.4387275E-1,4.2061796E0,1.3878963E0,-9.844432E-1,6.5726495E-1,-2.7722826E0,1.8014732E-1,1.5728011E0,-8.2841024E-2,-8.976409E-1,-1.0527282E-2],"split_indices":[1,1,1,0,3,1,2,0,0,0,3,1,3,0,2,0,3,3,3,1,0,1,3,3,0,0,1,2,0,1,0,0,2,3,2,3,3,3,0,0,0,0,3,2,0,0,1,3,0,0,3,0,2,0,2,1,0,0,0,1,0,0,0,0,0,0,0,0,0,0,0,0,0,0,0,0,0,0,0,0,0,0,0,0,0,0,0,0,0,0,0,0,0,0,0,0,0,0,0,0,0,0,0,0,0,0,0,0,0,0,0,0,0,0,0],"split_type":[0,0,0,0,0,0,0,0,0,0,0,0,0,0,0,0,0,0,0,0,0,0,0,0,0,0,0,0,0,0,0,0,0,0,0,0,0,0,0,0,0,0,0,0,0,0,0,0,0,0,0,0,0,0,0,0,0,0,0,0,0,0,0,0,0,0,0,0,0,0,0,0,0,0,0,0,0,0,0,0,0,0,0,0,0,0,0,0,0,0,0,0,0,0,0,0,0,0,0,0,0,0,0,0,0,0,0,0,0,0,0,0,0,0,0],"sum_hessian":[2.266E3,1.981E3,2.85E2,1.846E3,1.35E2,5.3E1,2.32E2,1.111E3,7.35E2,1.7E1,1.18E2,3.7E1,1.6E1,5.4E1,1.78E2,1.096E3,1.5E1,4.7E1,6.88E2,1.6E1,1E0,8.3E1,3.5E1,2.7E1,1E1,1E1,6E0,8E0,4.6E1,1.8E1,1.6E2,1.076E3,2E1,6E0,9E0,1.2E1,3.5E1,1.14E2,5.74E2,1.2E1,4E0,9E0,7.4E1,2.5E1,1E1,7E0,2E1,6E0,4E0,1E0,9E0,3E0,3E0,2E0,6E0,1.5E1,3.1E1,1.5E1,3E0,1.57E2,3E0,1.024E3,5.2E1,1.9E1,1E0,1E0,5E0,8E0,1E0,7E0,5E0,3E0,3.2E1,9.8E1,1.6E1,4.7E1,5.27E2,5E0,7E0,2E0,2E0,8E0,1E0,2.4E1,5E1,2.2E1,3E0,9E0,1E0,1E0,6E0,1.3E1,7E0,4E0,2E0,2E0,2E0,6E0,3E0,1E0,2E0,1E0,1E0,5E0,1E0,6E0,9E0,1.3E1,1.8E1,1E1,5E0,1E0,2E0,1.5E1,1.42E2],"tree_param":{"num_deleted":"0","num_feature":"4","num_nodes":"115","size_leaf_vector":"1"}},{"base_weights":[2.655522E-2,-4.1427258E-1,9.4257884E-2,-1.2191019E-1,-5.0203285E0,3.3829346E0,6.553903E-2,-4.147385E-1,1.7357951E0,1.4511572E-1,-7.615144E0,4.0779945E-1,3.8850522E0,-2.880121E0,8.373521E-2,5.7303935E-2,-1.737339E0,5.0254064E0,-2.816961E0,-2.6196384E0,4.7046676E0,-2.4555058E0,-9.5315295E-1,3.6269083E0,-2.56401E0,-5.202335E0,1.7461898E0,4.0575914E0,5.0645065E-2,-4.420365E-1,1.9743145E0,-3.5785747E0,6.717319E-1,1.0035702E1,-4.0367284E-1,-3.6210155E0,6.426897E-1,-4.7700122E-2,-9.585144E-1,1.7906715E0,3.26429E-1,-2.5443428E0,5.6858277E0,4.7355082E-2,-1.7446351E0,5.9104853E0,-1.0680768E0,-2.2692509E0,8.734492E-2,1.6282022E-1,-3.9946252E-1,2.1175182E0,2.9703262E-1,-1.4770471E0,1.635137E-1,1.988036E0,-1.6384451E-1,3.478275E0,-1.0662487E0,8.280847E-1,-1.61558E0,-1.210568E0,3.266908E-1,2.5053072E0,-1.1991663E-1,1.0895904E0,-2.7943625E0,2.9004672E0,-9.042825E-1,3.7114722E-1,5.557763E-3],"categories":[],"categories_nodes":[],"categories_segments":[],"categories_sizes":[],"default_left":[0,0,0,0,0,0,0,0,0,0,0,0,0,0,0,0,0,0,0,0,0,0,0,0,0,0,0,0,0,0,0,0,0,0,0,0,0,0,0,0,0,0,0,0,0,0,0,0,0,0,0,0,0,0,0,0,0,0,0,0,0,0,0,0,0,0,0,0,0,0,0],"id":17,"left_children":[1,3,5,7,9,11,13,15,17,19,21,23,-1,25,27,29,31,33,35,37,39,-1,-1,41,-1,43,-1,45,47,49,51,53,55,57,59,61,-1,-1,-1,-1,-1,-1,63,-1,-1,-1,65,67,69,-1,-1,-1,-1,-1,-1,-1,-1,-1,-1,-1,-1,-1,-1,-1,-1,-1,-1,-1,-1,-1,-1],"loss_changes":[6.769816E1,4.0607248E2,1.854611E2,1.5575668E2,2.4236578E2,4.7860394E2,1.0476067E2,1.5430746E2,5.982515E2,1.0056681E2,4.343811E0,4.345552E2,0E0,2.72741E2,2.5476425E2,1.7604779E2,2.9072217E2,6.296807E2,7.5545074E1,6.5713615E0,7.221863E0,0E0,0E0,3.2244678E2,0E0,3.3782074E1,0E0,1.3040201E3,1.6400728E2,1.2861261E2,1.8315504E2,2.0788263E2,2.1394296E2,2.953734E2,2.0400333E2,3.3658157E1,0E0,0E0,0E0,0E0,0E0,0E0,1.655299E2,0E0,0E0,0E0,5.376939E2,2.959538E2,1.4992651E2,0E0,0E0,0E0,0E0,0E0,0E0,0E0,0E0,0E0,0E0,0E0,0E0,0E0,0E0,0E0,0E0,0E0,0E0,0E0,0E0,0E0,0E0],"parents":[2147483647,0,0,1,1,2,2,3,3,4,4,5,5,6,6,7,7,8,8,9,9,10,10,11,11,13,13,14,14,15,15,16,16,17,17,18,18,19,19,20,20,23,23,25,25,27,27,28,28,29,29,30,30,31,31,32,32,33,33,34,34,35,35,42,42,46,46,47,47,48,48],"right_children":[2,4,6,8,10,12,14,16,18,20,22,24,-1,26,28,30,32,34,36,38,40,-1,-1,42,-1,44,-1,46,48,50,52,54,56,58,60,62,-1,-1,-1,-1,-1,-1,64,-1,-1,-1,66,68,70,-1,-1,-1,-1,-1,-1,-1,-1,-1,-1,-1,-1,-1,-1,-1,-1,-1,-1,-1,-1,-1,-1],"split_conditions":[1.1620809E1,1.1503113E1,1.1753876E1,1.1183201E1,3.49425E0,8E-1,1.1792404E1,1.0636766E1,1.9804628E2,5E-1,2.5872443E2,2E-1,3.8850522E0,2.9821005E2,1.1885453E1,1.2000002E0,2.188589E2,1.1304229E1,3.4955133E2,-3.9911664E0,-1.054325E1,-2.4555058E0,-9.5315295E-1,4.0020416E1,-2.56401E0,7.465283E1,1.7461898E0,3.49425E0,1.20694E1,9.255571E0,-5.9116673E-1,9.0000004E-1,2.3249573E2,3E-1,7.5755005E0,1.8888E1,6.426897E-1,-4.7700122E-2,-9.585144E-1,1.7906715E0,3.26429E-1,-2.5443428E0,1.744425E1,4.7355082E-2,-1.7446351E0,5.9104853E0,1E-1,-5.2224164E0,1.2738099E1,1.6282022E-1,-3.9946252E-1,2.1175182E0,2.9703262E-1,-1.4770471E0,1.635137E-1,1.988036E0,-1.6384451E-1,3.478275E0,-1.0662487E0,8.280847E-1,-1.61558E0,-1.210568E0,3.266908E-1,2.5053072E0,